<?xml version="1.0"?>
<opencv_storage>
<cascade>
  <stageType>BOOST</stageType>
  <featureType>HAAR</featureType>
  <height>30</height>
  <width>20</width>
  <stageParams>
    <boostType>GAB</boostType>
    <minHitRate>9.9900001287460327e-01</minHitRate>
    <maxFalseAlarm>5.0000000000000000e-01</maxFalseAlarm>
    <weightTrimRate>9.4999999999999996e-01</weightTrimRate>
    <maxDepth>1</maxDepth>
    <maxWeakCount>100</maxWeakCount></stageParams>
  <featureParams>
    <maxCatCount>0</maxCatCount>
    <featSize>1</featSize>
    <mode>ALL</mode></featureParams>
  <stageNum>20</stageNum>
  <stages>
    <!-- stage 0 -->
    <_>
      <maxWeakCount>8</maxWeakCount>
      <stageThreshold>-1.6532915830612183e+00</stageThreshold>
      <weakClassifiers>
        <_>
          <internalNodes>
            0 -1 7 -6.4908608794212341e-02</internalNodes>
          <leafValues>
            9.0380311012268066e-01 -6.1432266235351562e-01</leafValues></_>
        <_>
          <internalNodes>
            0 -1 275 -1.0028766468167305e-02</internalNodes>
          <leafValues>
            6.7193788290023804e-01 -6.1348545551300049e-01</leafValues></_>
        <_>
          <internalNodes>
            0 -1 30 -8.7149128317832947e-02</internalNodes>
          <leafValues>
            7.8433966636657715e-01 -4.1130191087722778e-01</leafValues></_>
        <_>
          <internalNodes>
            0 -1 148 1.9175533670932055e-03</internalNodes>
          <leafValues>
            -4.5616045594215393e-01 5.9208691120147705e-01</leafValues></_>
        <_>
          <internalNodes>
            0 -1 122 2.2022332996129990e-03</internalNodes>
          <leafValues>
            -4.0488189458847046e-01 6.3644403219223022e-01</leafValues></_>
        <_>
          <internalNodes>
            0 -1 452 -1.5094021800905466e-03</internalNodes>
          <leafValues>
            5.9964573383331299e-01 -3.6787420511245728e-01</leafValues></_>
        <_>
          <internalNodes>
            0 -1 174 -8.9633047580718994e-02</internalNodes>
          <leafValues>
            6.4618772268295288e-01 -3.8972714543342590e-01</leafValues></_>
        <_>
          <internalNodes>
            0 -1 624 6.6453503677621484e-04</internalNodes>
          <leafValues>
            -3.1572329998016357e-01 6.3694226741790771e-01</leafValues></_></weakClassifiers></_>
    <!-- stage 1 -->
    <_>
      <maxWeakCount>10</maxWeakCount>
      <stageThreshold>-1.9302155971527100e+00</stageThreshold>
      <weakClassifiers>
        <_>
          <internalNodes>
            0 -1 312 7.4691906571388245e-02</internalNodes>
          <leafValues>
            -4.4543248414993286e-01 8.3214569091796875e-01</leafValues></_>
        <_>
          <internalNodes>
            0 -1 9 -1.6435727477073669e-01</internalNodes>
          <leafValues>
            8.4611076116561890e-01 -4.3840646743774414e-01</leafValues></_>
        <_>
          <internalNodes>
            0 -1 167 -4.8184776678681374e-03</internalNodes>
          <leafValues>
            7.0080769062042236e-01 -3.9443778991699219e-01</leafValues></_>
        <_>
          <internalNodes>
            0 -1 250 -1.9571408629417419e-03</internalNodes>
          <leafValues>
            6.0527330636978149e-01 -3.8075456023216248e-01</leafValues></_>
        <_>
          <internalNodes>
            0 -1 338 -6.4033018425107002e-03</internalNodes>
          <leafValues>
            3.8130083680152893e-01 -5.5766630172729492e-01</leafValues></_>
        <_>
          <internalNodes>
            0 -1 472 -1.4403997920453548e-03</internalNodes>
          <leafValues>
            4.7745746374130249e-01 -4.1097074747085571e-01</leafValues></_>
        <_>
          <internalNodes>
            0 -1 197 2.4246608372777700e-03</internalNodes>
          <leafValues>
            -3.4884807467460632e-01 5.4094249010086060e-01</leafValues></_>
        <_>
          <internalNodes>
            0 -1 457 -1.6302935546264052e-03</internalNodes>
          <leafValues>
            7.3381036520004272e-01 -2.3579254746437073e-01</leafValues></_>
        <_>
          <internalNodes>
            0 -1 86 -2.6856241747736931e-03</internalNodes>
          <leafValues>
            6.4871662855148315e-01 -2.3600581288337708e-01</leafValues></_>
        <_>
          <internalNodes>
            0 -1 456 1.1250312672927976e-03</internalNodes>
          <leafValues>
            -2.6902389526367188e-01 5.7913202047348022e-01</leafValues></_></weakClassifiers></_>
    <!-- stage 2 -->
    <_>
      <maxWeakCount>13</maxWeakCount>
      <stageThreshold>-2.1004419326782227e+00</stageThreshold>
      <weakClassifiers>
        <_>
          <internalNodes>
            0 -1 313 5.9952668845653534e-02</internalNodes>
          <leafValues>
            -3.6825269460678101e-01 7.6870745420455933e-01</leafValues></_>
        <_>
          <internalNodes>
            0 -1 116 1.1072704568505287e-02</internalNodes>
          <leafValues>
            -4.7098869085311890e-01 5.7580524682998657e-01</leafValues></_>
        <_>
          <internalNodes>
            0 -1 379 2.9463935643434525e-02</internalNodes>
          <leafValues>
            -5.6463295221328735e-01 4.2778071761131287e-01</leafValues></_>
        <_>
          <internalNodes>
            0 -1 212 5.0962739624083042e-04</internalNodes>
          <leafValues>
            -4.4688433408737183e-01 4.5356985926628113e-01</leafValues></_>
        <_>
          <internalNodes>
            0 -1 621 8.3122262731194496e-04</internalNodes>
          <leafValues>
            -4.3804067373275757e-01 4.2088854312896729e-01</leafValues></_>
        <_>
          <internalNodes>
            0 -1 631 2.4610059335827827e-03</internalNodes>
          <leafValues>
            -3.1010666489601135e-01 5.2531433105468750e-01</leafValues></_>
        <_>
          <internalNodes>
            0 -1 335 -2.3555946536362171e-03</internalNodes>
          <leafValues>
            6.2059795856475830e-01 -2.2815300524234772e-01</leafValues></_>
        <_>
          <internalNodes>
            0 -1 415 1.6140908002853394e-02</internalNodes>
          <leafValues>
            -3.8948956131935120e-01 3.7490481138229370e-01</leafValues></_>
        <_>
          <internalNodes>
            0 -1 59 -1.8502601888030767e-03</internalNodes>
          <leafValues>
            3.5483431816101074e-01 -3.4082096815109253e-01</leafValues></_>
        <_>
          <internalNodes>
            0 -1 179 -1.4236800372600555e-02</internalNodes>
          <leafValues>
            -7.0487195253372192e-01 1.6546036303043365e-01</leafValues></_>
        <_>
          <internalNodes>
            0 -1 519 -5.7853050529956818e-03</internalNodes>
          <leafValues>
            3.3361703157424927e-01 -3.5046917200088501e-01</leafValues></_>
        <_>
          <internalNodes>
            0 -1 295 7.1466326713562012e-02</internalNodes>
          <leafValues>
            1.4314188063144684e-01 -9.0901070833206177e-01</leafValues></_>
        <_>
          <internalNodes>
            0 -1 403 -2.3952005431056023e-03</internalNodes>
          <leafValues>
            5.2666801214218140e-01 -2.3208566009998322e-01</leafValues></_></weakClassifiers></_>
    <!-- stage 3 -->
    <_>
      <maxWeakCount>17</maxWeakCount>
      <stageThreshold>-1.6808131933212280e+00</stageThreshold>
      <weakClassifiers>
        <_>
          <internalNodes>
            0 -1 290 3.3352106809616089e-02</internalNodes>
          <leafValues>
            -6.0554701089859009e-01 4.8244193196296692e-01</leafValues></_>
        <_>
          <internalNodes>
            0 -1 420 -1.2754879426211119e-03</internalNodes>
          <leafValues>
            3.7794509530067444e-01 -5.7191503047943115e-01</leafValues></_>
        <_>
          <internalNodes>
            0 -1 202 -5.5652721785008907e-03</internalNodes>
          <leafValues>
            4.5966064929962158e-01 -3.8197556138038635e-01</leafValues></_>
        <_>
          <internalNodes>
            0 -1 345 -3.9448931813240051e-02</internalNodes>
          <leafValues>
            4.8523086309432983e-01 -3.8816109299659729e-01</leafValues></_>
        <_>
          <internalNodes>
            0 -1 438 -2.4661906063556671e-03</internalNodes>
          <leafValues>
            2.7685967087745667e-01 -4.9967485666275024e-01</leafValues></_>
        <_>
          <internalNodes>
            0 -1 409 2.5515332818031311e-03</internalNodes>
          <leafValues>
            -2.3053570091724396e-01 7.1296012401580811e-01</leafValues></_>
        <_>
          <internalNodes>
            0 -1 408 -2.7538819704204798e-03</internalNodes>
          <leafValues>
            7.3872357606887817e-01 -1.3366207480430603e-01</leafValues></_>
        <_>
          <internalNodes>
            0 -1 73 1.8044032156467438e-02</internalNodes>
          <leafValues>
            2.0309627056121826e-01 -8.0904686450958252e-01</leafValues></_>
        <_>
          <internalNodes>
            0 -1 563 -5.4806834086775780e-03</internalNodes>
          <leafValues>
            4.3404027819633484e-01 -3.0020901560783386e-01</leafValues></_>
        <_>
          <internalNodes>
            0 -1 441 2.8723864816129208e-03</internalNodes>
          <leafValues>
            -1.5457351505756378e-01 7.2509378194808960e-01</leafValues></_>
        <_>
          <internalNodes>
            0 -1 442 1.5533197438344359e-03</internalNodes>
          <leafValues>
            -2.3146028816699982e-01 6.1510902643203735e-01</leafValues></_>
        <_>
          <internalNodes>
            0 -1 24 3.4418806433677673e-02</internalNodes>
          <leafValues>
            2.1790465712547302e-01 -6.5381449460983276e-01</leafValues></_>
        <_>
          <internalNodes>
            0 -1 443 1.4847636921331286e-03</internalNodes>
          <leafValues>
            -2.4634233117103577e-01 5.7180982828140259e-01</leafValues></_>
        <_>
          <internalNodes>
            0 -1 616 1.5565524809062481e-03</internalNodes>
          <leafValues>
            -1.4052459597587585e-01 6.8098217248916626e-01</leafValues></_>
        <_>
          <internalNodes>
            0 -1 518 2.8225326910614967e-02</internalNodes>
          <leafValues>
            1.6305175423622131e-01 -6.9365328550338745e-01</leafValues></_>
        <_>
          <internalNodes>
            0 -1 465 5.0981761887669563e-03</internalNodes>
          <leafValues>
            -2.4194231629371643e-01 4.4996461272239685e-01</leafValues></_>
        <_>
          <internalNodes>
            0 -1 240 -4.4004339724779129e-03</internalNodes>
          <leafValues>
            2.3495931923389435e-01 -4.8934680223464966e-01</leafValues></_></weakClassifiers></_>
    <!-- stage 4 -->
    <_>
      <maxWeakCount>20</maxWeakCount>
      <stageThreshold>-1.7461856603622437e+00</stageThreshold>
      <weakClassifiers>
        <_>
          <internalNodes>
            0 -1 312 8.3375096321105957e-02</internalNodes>
          <leafValues>
            -3.2201230525970459e-01 6.6496503353118896e-01</leafValues></_>
        <_>
          <internalNodes>
            0 -1 21 -2.0827455446124077e-02</internalNodes>
          <leafValues>
            5.2513241767883301e-01 -3.7862902879714966e-01</leafValues></_>
        <_>
          <internalNodes>
            0 -1 79 -1.1787074618041515e-03</internalNodes>
          <leafValues>
            4.0239685773849487e-01 -3.8584512472152710e-01</leafValues></_>
        <_>
          <internalNodes>
            0 -1 62 4.1440863162279129e-02</internalNodes>
          <leafValues>
            -3.1308957934379578e-01 4.1142347455024719e-01</leafValues></_>
        <_>
          <internalNodes>
            0 -1 15 9.1793574392795563e-02</internalNodes>
          <leafValues>
            1.3469399511814117e-01 -7.1110492944717407e-01</leafValues></_>
        <_>
          <internalNodes>
            0 -1 622 5.6607875740155578e-04</internalNodes>
          <leafValues>
            -3.0890309810638428e-01 3.6631134152412415e-01</leafValues></_>
        <_>
          <internalNodes>
            0 -1 165 -7.7610887587070465e-02</internalNodes>
          <leafValues>
            -7.2884416580200195e-01 1.4973279833793640e-01</leafValues></_>
        <_>
          <internalNodes>
            0 -1 304 7.1836583316326141e-02</internalNodes>
          <leafValues>
            -1.7717418074607849e-01 7.1641534566879272e-01</leafValues></_>
        <_>
          <internalNodes>
            0 -1 41 -1.0583820939064026e-01</internalNodes>
          <leafValues>
            6.2140989303588867e-01 -1.9093090295791626e-01</leafValues></_>
        <_>
          <internalNodes>
            0 -1 112 5.1773991435766220e-03</internalNodes>
          <leafValues>
            -3.0237036943435669e-01 3.6056724190711975e-01</leafValues></_>
        <_>
          <internalNodes>
            0 -1 378 3.2359873875975609e-03</internalNodes>
          <leafValues>
            -2.3235537111759186e-01 4.2681610584259033e-01</leafValues></_>
        <_>
          <internalNodes>
            0 -1 591 1.6921064816415310e-03</internalNodes>
          <leafValues>
            -1.7891478538513184e-01 5.2929604053497314e-01</leafValues></_>
        <_>
          <internalNodes>
            0 -1 105 -6.2501817941665649e-02</internalNodes>
          <leafValues>
            -9.0213048458099365e-01 1.0981149971485138e-01</leafValues></_>
        <_>
          <internalNodes>
            0 -1 277 1.4451207593083382e-02</internalNodes>
          <leafValues>
            9.9671803414821625e-02 -7.9846513271331787e-01</leafValues></_>
        <_>
          <internalNodes>
            0 -1 373 3.6819549277424812e-03</internalNodes>
          <leafValues>
            -2.4650897085666656e-01 3.8641813397407532e-01</leafValues></_>
        <_>
          <internalNodes>
            0 -1 442 2.6111160404980183e-03</internalNodes>
          <leafValues>
            -1.5985091030597687e-01 5.5816721916198730e-01</leafValues></_>
        <_>
          <internalNodes>
            0 -1 422 -7.4033392593264580e-04</internalNodes>
          <leafValues>
            2.3697799444198608e-01 -3.5157391428947449e-01</leafValues></_>
        <_>
          <internalNodes>
            0 -1 12 -3.4634552896022797e-02</internalNodes>
          <leafValues>
            2.2450619935989380e-01 -4.0390968322753906e-01</leafValues></_>
        <_>
          <internalNodes>
            0 -1 212 6.2991911545395851e-04</internalNodes>
          <leafValues>
            -3.0175644159317017e-01 2.5310429930686951e-01</leafValues></_>
        <_>
          <internalNodes>
            0 -1 588 -3.2940194010734558e-02</internalNodes>
          <leafValues>
            -7.9542464017868042e-01 9.9308706820011139e-02</leafValues></_></weakClassifiers></_>
    <!-- stage 5 -->
    <_>
      <maxWeakCount>22</maxWeakCount>
      <stageThreshold>-1.6156491041183472e+00</stageThreshold>
      <weakClassifiers>
        <_>
          <internalNodes>
            0 -1 7 -8.1646621227264404e-02</internalNodes>
          <leafValues>
            6.7215365171432495e-01 -4.6065258979797363e-01</leafValues></_>
        <_>
          <internalNodes>
            0 -1 310 6.7217119038105011e-02</internalNodes>
          <leafValues>
            -3.7333047389984131e-01 5.4938554763793945e-01</leafValues></_>
        <_>
          <internalNodes>
            0 -1 164 1.0857746005058289e-02</internalNodes>
          <leafValues>
            -2.8137335181236267e-01 5.5843955278396606e-01</leafValues></_>
        <_>
          <internalNodes>
            0 -1 107 -6.2013849616050720e-02</internalNodes>
          <leafValues>
            3.8578981161117554e-01 -2.9833349585533142e-01</leafValues></_>
        <_>
          <internalNodes>
            0 -1 450 -4.7676572576165199e-03</internalNodes>
          <leafValues>
            3.2198354601860046e-01 -4.2160105705261230e-01</leafValues></_>
        <_>
          <internalNodes>
            0 -1 127 -6.1886515468358994e-03</internalNodes>
          <leafValues>
            3.5688126087188721e-01 -2.5392222404479980e-01</leafValues></_>
        <_>
          <internalNodes>
            0 -1 412 2.3584656417369843e-02</internalNodes>
          <leafValues>
            -2.2928100824356079e-01 4.0769127011299133e-01</leafValues></_>
        <_>
          <internalNodes>
            0 -1 520 -5.6124874390661716e-03</internalNodes>
          <leafValues>
            3.1192365288734436e-01 -2.5802913308143616e-01</leafValues></_>
        <_>
          <internalNodes>
            0 -1 297 6.9107905030250549e-02</internalNodes>
          <leafValues>
            -1.3252060115337372e-01 6.4480710029602051e-01</leafValues></_>
        <_>
          <internalNodes>
            0 -1 451 -2.0688178017735481e-02</internalNodes>
          <leafValues>
            3.8420003652572632e-01 -1.9048668444156647e-01</leafValues></_>
        <_>
          <internalNodes>
            0 -1 153 1.5552043914794922e-03</internalNodes>
          <leafValues>
            -3.0864030122756958e-01 2.6231363415718079e-01</leafValues></_>
        <_>
          <internalNodes>
            0 -1 245 -2.1241618320345879e-02</internalNodes>
          <leafValues>
            5.5986863374710083e-01 -1.4822198450565338e-01</leafValues></_>
        <_>
          <internalNodes>
            0 -1 135 1.9795645028352737e-02</internalNodes>
          <leafValues>
            1.2172383069992065e-01 -6.9991862773895264e-01</leafValues></_>
        <_>
          <internalNodes>
            0 -1 370 -8.5238609462976456e-03</internalNodes>
          <leafValues>
            6.2900334596633911e-01 -1.3084453344345093e-01</leafValues></_>
        <_>
          <internalNodes>
            0 -1 308 -6.3756838440895081e-02</internalNodes>
          <leafValues>
            6.4729237556457520e-01 -9.8695337772369385e-02</leafValues></_>
        <_>
          <internalNodes>
            0 -1 402 -4.0470436215400696e-03</internalNodes>
          <leafValues>
            5.8629858493804932e-01 -1.1065599322319031e-01</leafValues></_>
        <_>
          <internalNodes>
            0 -1 496 2.5384675711393356e-02</internalNodes>
          <leafValues>
            1.0828105360269547e-01 -7.0703274011611938e-01</leafValues></_>
        <_>
          <internalNodes>
            0 -1 523 1.8823448568582535e-02</internalNodes>
          <leafValues>
            9.1948829591274261e-02 -6.6747790575027466e-01</leafValues></_>
        <_>
          <internalNodes>
            0 -1 33 2.1044480800628662e-01</internalNodes>
          <leafValues>
            7.5434260070323944e-02 -8.0168884992599487e-01</leafValues></_>
        <_>
          <internalNodes>
            0 -1 67 -9.0393483638763428e-02</internalNodes>
          <leafValues>
            -7.5977909564971924e-01 6.9504931569099426e-02</leafValues></_>
        <_>
          <internalNodes>
            0 -1 476 -2.0562035962939262e-02</internalNodes>
          <leafValues>
            4.5166283845901489e-01 -1.6339923441410065e-01</leafValues></_>
        <_>
          <internalNodes>
            0 -1 464 5.4156944155693054e-02</internalNodes>
          <leafValues>
            9.9059708416461945e-02 -7.0079678297042847e-01</leafValues></_></weakClassifiers></_>
    <!-- stage 6 -->
    <_>
      <maxWeakCount>24</maxWeakCount>
      <stageThreshold>-1.6399282217025757e+00</stageThreshold>
      <weakClassifiers>
        <_>
          <internalNodes>
            0 -1 23 -6.1058752238750458e-02</internalNodes>
          <leafValues>
            5.0223499536514282e-01 -3.0674517154693604e-01</leafValues></_>
        <_>
          <internalNodes>
            0 -1 152 -4.9399487674236298e-02</internalNodes>
          <leafValues>
            3.3377063274383545e-01 -4.6108248829841614e-01</leafValues></_>
        <_>
          <internalNodes>
            0 -1 31 -1.8105166032910347e-02</internalNodes>
          <leafValues>
            5.3061270713806152e-01 -2.1759191155433655e-01</leafValues></_>
        <_>
          <internalNodes>
            0 -1 81 2.5228722020983696e-02</internalNodes>
          <leafValues>
            1.4040139317512512e-01 -8.0327260494232178e-01</leafValues></_>
        <_>
          <internalNodes>
            0 -1 176 -1.6730400919914246e-01</internalNodes>
          <leafValues>
            3.6218571662902832e-01 -2.6251453161239624e-01</leafValues></_>
        <_>
          <internalNodes>
            0 -1 116 2.1826066076755524e-02</internalNodes>
          <leafValues>
            -2.6671504974365234e-01 3.6397528648376465e-01</leafValues></_>
        <_>
          <internalNodes>
            0 -1 458 -5.3162854164838791e-03</internalNodes>
          <leafValues>
            7.7689939737319946e-01 -1.4536881446838379e-01</leafValues></_>
        <_>
          <internalNodes>
            0 -1 420 -5.0659786211326718e-04</internalNodes>
          <leafValues>
            2.3637150228023529e-01 -4.4489407539367676e-01</leafValues></_>
        <_>
          <internalNodes>
            0 -1 458 2.3623355664312840e-03</internalNodes>
          <leafValues>
            -2.0312879979610443e-01 4.6480146050453186e-01</leafValues></_>
        <_>
          <internalNodes>
            0 -1 529 3.5295069217681885e-02</internalNodes>
          <leafValues>
            1.2900160253047943e-01 -7.4496906995773315e-01</leafValues></_>
        <_>
          <internalNodes>
            0 -1 183 2.5362145155668259e-02</internalNodes>
          <leafValues>
            7.4212990701198578e-02 -8.1274098157882690e-01</leafValues></_>
        <_>
          <internalNodes>
            0 -1 148 4.0117145545082167e-05</internalNodes>
          <leafValues>
            -3.9834165573120117e-01 1.8450938165187836e-01</leafValues></_>
        <_>
          <internalNodes>
            0 -1 63 -2.6831720024347305e-02</internalNodes>
          <leafValues>
            1.7966154217720032e-01 -4.1392093896865845e-01</leafValues></_>
        <_>
          <internalNodes>
            0 -1 367 2.7258517220616341e-03</internalNodes>
          <leafValues>
            -1.5898342430591583e-01 4.7123530507087708e-01</leafValues></_>
        <_>
          <internalNodes>
            0 -1 369 2.6017010677605867e-03</internalNodes>
          <leafValues>
            -1.4791461825370789e-01 5.0149857997894287e-01</leafValues></_>
        <_>
          <internalNodes>
            0 -1 423 2.0319869741797447e-02</internalNodes>
          <leafValues>
            1.1105679720640182e-01 -7.1712863445281982e-01</leafValues></_>
        <_>
          <internalNodes>
            0 -1 486 -3.8497503846883774e-03</internalNodes>
          <leafValues>
            2.6387435197830200e-01 -2.8781276941299438e-01</leafValues></_>
        <_>
          <internalNodes>
            0 -1 94 -2.4541984312236309e-03</internalNodes>
          <leafValues>
            3.8474649190902710e-01 -1.7767752707004547e-01</leafValues></_>
        <_>
          <internalNodes>
            0 -1 512 -1.9162237644195557e-02</internalNodes>
          <leafValues>
            -8.0399769544601440e-01 8.2244634628295898e-02</leafValues></_>
        <_>
          <internalNodes>
            0 -1 598 2.4179802276194096e-03</internalNodes>
          <leafValues>
            -1.5588946640491486e-01 4.7148334980010986e-01</leafValues></_>
        <_>
          <internalNodes>
            0 -1 134 -2.2321619093418121e-02</internalNodes>
          <leafValues>
            -8.7431865930557251e-01 8.4303706884384155e-02</leafValues></_>
        <_>
          <internalNodes>
            0 -1 304 6.4360484480857849e-02</internalNodes>
          <leafValues>
            -1.4612461626529694e-01 4.9829962849617004e-01</leafValues></_>
        <_>
          <internalNodes>
            0 -1 297 -5.8171182870864868e-02</internalNodes>
          <leafValues>
            5.6861364841461182e-01 -1.5466465055942535e-01</leafValues></_>
        <_>
          <internalNodes>
            0 -1 340 -5.1188059151172638e-03</internalNodes>
          <leafValues>
            6.9638997316360474e-01 -8.5661582648754120e-02</leafValues></_></weakClassifiers></_>
    <!-- stage 7 -->
    <_>
      <maxWeakCount>21</maxWeakCount>
      <stageThreshold>-1.7734673023223877e+00</stageThreshold>
      <weakClassifiers>
        <_>
          <internalNodes>
            0 -1 201 -2.8838089201599360e-03</internalNodes>
          <leafValues>
            5.1777231693267822e-01 -2.9807445406913757e-01</leafValues></_>
        <_>
          <internalNodes>
            0 -1 313 8.4234148263931274e-02</internalNodes>
          <leafValues>
            -2.9213374853134155e-01 4.9065294861793518e-01</leafValues></_>
        <_>
          <internalNodes>
            0 -1 194 5.3513566963374615e-03</internalNodes>
          <leafValues>
            -3.1972062587738037e-01 4.5724049210548401e-01</leafValues></_>
        <_>
          <internalNodes>
            0 -1 427 2.1653834264725447e-03</internalNodes>
          <leafValues>
            -1.7132791876792908e-01 6.7291694879531860e-01</leafValues></_>
        <_>
          <internalNodes>
            0 -1 429 1.6311937943100929e-03</internalNodes>
          <leafValues>
            -2.4038821458816528e-01 5.8817160129547119e-01</leafValues></_>
        <_>
          <internalNodes>
            0 -1 3 -2.7955818921327591e-02</internalNodes>
          <leafValues>
            3.4464237093925476e-01 -3.4256300330162048e-01</leafValues></_>
        <_>
          <internalNodes>
            0 -1 283 2.1912767551839352e-03</internalNodes>
          <leafValues>
            -1.5454728901386261e-01 6.0450500249862671e-01</leafValues></_>
        <_>
          <internalNodes>
            0 -1 281 1.7245678463950753e-03</internalNodes>
          <leafValues>
            -1.6873608529567719e-01 5.4928463697433472e-01</leafValues></_>
        <_>
          <internalNodes>
            0 -1 279 1.9424743950366974e-03</internalNodes>
          <leafValues>
            -1.6382060945034027e-01 5.9612220525741577e-01</leafValues></_>
        <_>
          <internalNodes>
            0 -1 24 -2.9686629772186279e-02</internalNodes>
          <leafValues>
            2.1311718225479126e-01 -4.3979269266128540e-01</leafValues></_>
        <_>
          <internalNodes>
            0 -1 459 2.0614126697182655e-03</internalNodes>
          <leafValues>
            -1.6745381057262421e-01 5.5018985271453857e-01</leafValues></_>
        <_>
          <internalNodes>
            0 -1 74 2.1868435665965080e-02</internalNodes>
          <leafValues>
            1.4942368865013123e-01 -7.2393083572387695e-01</leafValues></_>
        <_>
          <internalNodes>
            0 -1 428 -2.9752729460597038e-03</internalNodes>
          <leafValues>
            5.1523929834365845e-01 -1.9122415781021118e-01</leafValues></_>
        <_>
          <internalNodes>
            0 -1 320 -1.3809867203235626e-02</internalNodes>
          <leafValues>
            2.1140296757221222e-01 -3.9565926790237427e-01</leafValues></_>
        <_>
          <internalNodes>
            0 -1 565 1.6259027179330587e-03</internalNodes>
          <leafValues>
            -1.7652960121631622e-01 4.8643386363983154e-01</leafValues></_>
        <_>
          <internalNodes>
            0 -1 564 1.7952193738892674e-03</internalNodes>
          <leafValues>
            -1.5689460933208466e-01 4.9504107236862183e-01</leafValues></_>
        <_>
          <internalNodes>
            0 -1 387 2.2644318640232086e-02</internalNodes>
          <leafValues>
            -4.2086327075958252e-01 1.9019962847232819e-01</leafValues></_>
        <_>
          <internalNodes>
            0 -1 123 -3.5230480134487152e-03</internalNodes>
          <leafValues>
            2.7111116051673889e-01 -2.7727422118186951e-01</leafValues></_>
        <_>
          <internalNodes>
            0 -1 616 1.5068908687680960e-03</internalNodes>
          <leafValues>
            -1.3278302550315857e-01 5.5301630496978760e-01</leafValues></_>
        <_>
          <internalNodes>
            0 -1 293 2.3398944176733494e-03</internalNodes>
          <leafValues>
            -1.2695525586605072e-01 5.3467196226119995e-01</leafValues></_>
        <_>
          <internalNodes>
            0 -1 181 1.2330670142546296e-03</internalNodes>
          <leafValues>
            -2.9701736569404602e-01 2.4976411461830139e-01</leafValues></_></weakClassifiers></_>
    <!-- stage 8 -->
    <_>
      <maxWeakCount>35</maxWeakCount>
      <stageThreshold>-1.7159131765365601e+00</stageThreshold>
      <weakClassifiers>
        <_>
          <internalNodes>
            0 -1 7 -1.3840731978416443e-01</internalNodes>
          <leafValues>
            5.5801558494567871e-01 -1.4096055924892426e-01</leafValues></_>
        <_>
          <internalNodes>
            0 -1 619 -3.7385536415968090e-05</internalNodes>
          <leafValues>
            2.5887975096702576e-01 -4.4612655043601990e-01</leafValues></_>
        <_>
          <internalNodes>
            0 -1 563 -4.5823231339454651e-03</internalNodes>
          <leafValues>
            3.5258257389068604e-01 -2.6469248533248901e-01</leafValues></_>
        <_>
          <internalNodes>
            0 -1 480 -2.9112482443451881e-03</internalNodes>
          <leafValues>
            5.3640460968017578e-01 -1.6112694144248962e-01</leafValues></_>
        <_>
          <internalNodes>
            0 -1 460 -3.3343189861625433e-03</internalNodes>
          <leafValues>
            4.9938562512397766e-01 -1.7525078356266022e-01</leafValues></_>
        <_>
          <internalNodes>
            0 -1 217 3.1468392990063876e-05</internalNodes>
          <leafValues>
            -3.5538691282272339e-01 2.3650690913200378e-01</leafValues></_>
        <_>
          <internalNodes>
            0 -1 311 1.2172069400548935e-02</internalNodes>
          <leafValues>
            -4.7447210550308228e-01 1.6346238553524017e-01</leafValues></_>
        <_>
          <internalNodes>
            0 -1 100 -8.3041617472190410e-05</internalNodes>
          <leafValues>
            1.5524022281169891e-01 -4.5608043670654297e-01</leafValues></_>
        <_>
          <internalNodes>
            0 -1 526 2.8134595602750778e-02</internalNodes>
          <leafValues>
            8.6470752954483032e-02 -6.4182502031326294e-01</leafValues></_>
        <_>
          <internalNodes>
            0 -1 479 2.8231265023350716e-03</internalNodes>
          <leafValues>
            -1.3740485906600952e-01 5.0652635097503662e-01</leafValues></_>
        <_>
          <internalNodes>
            0 -1 482 1.7673074034973979e-03</internalNodes>
          <leafValues>
            -1.9180437922477722e-01 4.6611696481704712e-01</leafValues></_>
        <_>
          <internalNodes>
            0 -1 85 -4.0859213913790882e-04</internalNodes>
          <leafValues>
            2.7560013532638550e-01 -2.2719380259513855e-01</leafValues></_>
        <_>
          <internalNodes>
            0 -1 513 2.0310584455728531e-02</internalNodes>
          <leafValues>
            1.2449173629283905e-01 -6.0717725753784180e-01</leafValues></_>
        <_>
          <internalNodes>
            0 -1 569 -3.8841301575303078e-03</internalNodes>
          <leafValues>
            2.1819038689136505e-01 -2.8234893083572388e-01</leafValues></_>
        <_>
          <internalNodes>
            0 -1 426 -5.4323100484907627e-03</internalNodes>
          <leafValues>
            6.7807751893997192e-01 -9.5036230981349945e-02</leafValues></_>
        <_>
          <internalNodes>
            0 -1 426 2.1684032399207354e-03</internalNodes>
          <leafValues>
            -1.3962884247303009e-01 4.0429139137268066e-01</leafValues></_>
        <_>
          <internalNodes>
            0 -1 360 4.1222651489078999e-03</internalNodes>
          <leafValues>
            1.2455758452415466e-01 -4.8876371979713440e-01</leafValues></_>
        <_>
          <internalNodes>
            0 -1 365 -3.1338550150394440e-02</internalNodes>
          <leafValues>
            -8.4746015071868896e-01 6.5806746482849121e-02</leafValues></_>
        <_>
          <internalNodes>
            0 -1 389 1.6118349507451057e-02</internalNodes>
          <leafValues>
            -2.0747075974941254e-01 2.9231780767440796e-01</leafValues></_>
        <_>
          <internalNodes>
            0 -1 164 1.5783272683620453e-02</internalNodes>
          <leafValues>
            -1.5025982260704041e-01 4.4001320004463196e-01</leafValues></_>
        <_>
          <internalNodes>
            0 -1 546 5.4392460733652115e-03</internalNodes>
          <leafValues>
            -1.0031704604625702e-01 5.9720093011856079e-01</leafValues></_>
        <_>
          <internalNodes>
            0 -1 570 4.1850116103887558e-03</internalNodes>
          <leafValues>
            -2.3706339299678802e-01 2.6885423064231873e-01</leafValues></_>
        <_>
          <internalNodes>
            0 -1 36 4.9586981534957886e-02</internalNodes>
          <leafValues>
            7.3714911937713623e-02 -8.0572080612182617e-01</leafValues></_>
        <_>
          <internalNodes>
            0 -1 232 -4.3656028807163239e-02</internalNodes>
          <leafValues>
            -7.2779983282089233e-01 6.2919646501541138e-02</leafValues></_>
        <_>
          <internalNodes>
            0 -1 334 -4.5090452767908573e-03</internalNodes>
          <leafValues>
            5.7141214609146118e-01 -1.0878085345029831e-01</leafValues></_>
        <_>
          <internalNodes>
            0 -1 489 -2.8449611738324165e-02</internalNodes>
          <leafValues>
            -6.5819710493087769e-01 9.4472624361515045e-02</leafValues></_>
        <_>
          <internalNodes>
            0 -1 616 2.4472805671393871e-03</internalNodes>
          <leafValues>
            -1.1645791679620743e-01 5.3661018610000610e-01</leafValues></_>
        <_>
          <internalNodes>
            0 -1 549 -2.3329772055149078e-02</internalNodes>
          <leafValues>
            -7.9091280698776245e-01 8.7279342114925385e-02</leafValues></_>
        <_>
          <internalNodes>
            0 -1 613 3.1915984582155943e-03</internalNodes>
          <leafValues>
            -1.1651135236024857e-01 5.2353328466415405e-01</leafValues></_>
        <_>
          <internalNodes>
            0 -1 305 6.8898767232894897e-02</internalNodes>
          <leafValues>
            -1.0265140980482101e-01 4.9491605162620544e-01</leafValues></_>
        <_>
          <internalNodes>
            0 -1 46 -1.6072613000869751e-01</internalNodes>
          <leafValues>
            5.7960379123687744e-01 -1.0094369202852249e-01</leafValues></_>
        <_>
          <internalNodes>
            0 -1 252 6.3153952360153198e-03</internalNodes>
          <leafValues>
            -1.0225752741098404e-01 5.3558695316314697e-01</leafValues></_>
        <_>
          <internalNodes>
            0 -1 292 -4.7746663913130760e-03</internalNodes>
          <leafValues>
            6.2658339738845825e-01 -8.0886065959930420e-02</leafValues></_>
        <_>
          <internalNodes>
            0 -1 39 -1.8716046586632729e-02</internalNodes>
          <leafValues>
            5.0480639934539795e-01 -1.0499510914087296e-01</leafValues></_>
        <_>
          <internalNodes>
            0 -1 76 1.7246385104954243e-03</internalNodes>
          <leafValues>
            -1.6162994503974915e-01 3.3721348643302917e-01</leafValues></_></weakClassifiers></_>
    <!-- stage 9 -->
    <_>
      <maxWeakCount>33</maxWeakCount>
      <stageThreshold>-1.6301895380020142e+00</stageThreshold>
      <weakClassifiers>
        <_>
          <internalNodes>
            0 -1 267 1.0376645624637604e-01</internalNodes>
          <leafValues>
            -2.1842670440673828e-01 6.3953250646591187e-01</leafValues></_>
        <_>
          <internalNodes>
            0 -1 10 -1.7510771751403809e-01</internalNodes>
          <leafValues>
            4.5800065994262695e-01 -3.8555374741554260e-01</leafValues></_>
        <_>
          <internalNodes>
            0 -1 246 -8.5813663899898529e-03</internalNodes>
          <leafValues>
            4.0526035428047180e-01 -2.7315291762351990e-01</leafValues></_>
        <_>
          <internalNodes>
            0 -1 473 -1.2344622518867254e-04</internalNodes>
          <leafValues>
            2.0945073664188385e-01 -4.0421494841575623e-01</leafValues></_>
        <_>
          <internalNodes>
            0 -1 124 -2.4814225733280182e-02</internalNodes>
          <leafValues>
            4.9749499559402466e-01 -1.7909246683120728e-01</leafValues></_>
        <_>
          <internalNodes>
            0 -1 288 -1.3001376390457153e-01</internalNodes>
          <leafValues>
            4.5756804943084717e-01 -1.3345822691917419e-01</leafValues></_>
        <_>
          <internalNodes>
            0 -1 26 -2.3355036973953247e-02</internalNodes>
          <leafValues>
            5.9107053279876709e-01 -8.9351505041122437e-02</leafValues></_>
        <_>
          <internalNodes>
            0 -1 409 -5.0600450485944748e-03</internalNodes>
          <leafValues>
            5.2874380350112915e-01 -1.2243629246950150e-01</leafValues></_>
        <_>
          <internalNodes>
            0 -1 1 5.3252605721354485e-04</internalNodes>
          <leafValues>
            1.3130813837051392e-01 -5.0132942199707031e-01</leafValues></_>
        <_>
          <internalNodes>
            0 -1 430 6.6062122583389282e-02</internalNodes>
          <leafValues>
            -1.9379214942455292e-01 3.1500583887100220e-01</leafValues></_>
        <_>
          <internalNodes>
            0 -1 307 -3.7639293819665909e-02</internalNodes>
          <leafValues>
            5.4523468017578125e-01 -1.0518231987953186e-01</leafValues></_>
        <_>
          <internalNodes>
            0 -1 195 3.4532884601503611e-03</internalNodes>
          <leafValues>
            -2.4460697174072266e-01 2.5371083617210388e-01</leafValues></_>
        <_>
          <internalNodes>
            0 -1 409 2.6552611961960793e-03</internalNodes>
          <leafValues>
            -1.5830565989017487e-01 4.2199668288230896e-01</leafValues></_>
        <_>
          <internalNodes>
            0 -1 158 -2.7180489152669907e-02</internalNodes>
          <leafValues>
            -8.1553047895431519e-01 8.7740398943424225e-02</leafValues></_>
        <_>
          <internalNodes>
            0 -1 219 2.0335350185632706e-02</internalNodes>
          <leafValues>
            7.4565768241882324e-02 -6.7989605665206909e-01</leafValues></_>
        <_>
          <internalNodes>
            0 -1 316 2.9433246701955795e-02</internalNodes>
          <leafValues>
            -1.3443954288959503e-01 4.5930352807044983e-01</leafValues></_>
        <_>
          <internalNodes>
            0 -1 620 3.7504159845411777e-03</internalNodes>
          <leafValues>
            -1.6478617489337921e-01 3.5152497887611389e-01</leafValues></_>
        <_>
          <internalNodes>
            0 -1 588 -2.8719495981931686e-02</internalNodes>
          <leafValues>
            -6.2758570909500122e-01 9.1555677354335785e-02</leafValues></_>
        <_>
          <internalNodes>
            0 -1 566 -1.0033915750682354e-03</internalNodes>
          <leafValues>
            -4.9025896191596985e-01 9.8966628313064575e-02</leafValues></_>
        <_>
          <internalNodes>
            0 -1 566 5.1208311924710870e-04</internalNodes>
          <leafValues>
            1.6249471902847290e-01 -3.4717121720314026e-01</leafValues></_>
        <_>
          <internalNodes>
            0 -1 101 -3.7842167075723410e-03</internalNodes>
          <leafValues>
            4.4865021109580994e-01 -1.3114336133003235e-01</leafValues></_>
        <_>
          <internalNodes>
            0 -1 531 -1.4471020549535751e-02</internalNodes>
          <leafValues>
            -6.5544623136520386e-01 8.5111476480960846e-02</leafValues></_>
        <_>
          <internalNodes>
            0 -1 187 2.3619160056114197e-03</internalNodes>
          <leafValues>
            -2.5565978884696960e-01 2.0767222344875336e-01</leafValues></_>
        <_>
          <internalNodes>
            0 -1 271 1.3806600123643875e-02</internalNodes>
          <leafValues>
            7.7640362083911896e-02 -6.8911617994308472e-01</leafValues></_>
        <_>
          <internalNodes>
            0 -1 143 -8.5216239094734192e-03</internalNodes>
          <leafValues>
            -6.2337684631347656e-01 8.3126217126846313e-02</leafValues></_>
        <_>
          <internalNodes>
            0 -1 402 2.4332362227141857e-03</internalNodes>
          <leafValues>
            -1.4284539222717285e-01 3.8206934928894043e-01</leafValues></_>
        <_>
          <internalNodes>
            0 -1 354 -3.7753589451313019e-02</internalNodes>
          <leafValues>
            5.7574105262756348e-01 -8.9108981192111969e-02</leafValues></_>
        <_>
          <internalNodes>
            0 -1 102 -5.2329715341329575e-02</internalNodes>
          <leafValues>
            -7.0461934804916382e-01 8.5715278983116150e-02</leafValues></_>
        <_>
          <internalNodes>
            0 -1 157 -5.8022517710924149e-02</internalNodes>
          <leafValues>
            -8.2601571083068848e-01 5.2274953573942184e-02</leafValues></_>
        <_>
          <internalNodes>
            0 -1 225 3.9995811879634857e-02</internalNodes>
          <leafValues>
            -1.6865970194339752e-01 3.1584706902503967e-01</leafValues></_>
        <_>
          <internalNodes>
            0 -1 405 2.7451161295175552e-03</internalNodes>
          <leafValues>
            -1.0392384231090546e-01 4.7784465551376343e-01</leafValues></_>
        <_>
          <internalNodes>
            0 -1 578 -2.5434006005525589e-02</internalNodes>
          <leafValues>
            4.7761258482933044e-01 -9.9184282124042511e-02</leafValues></_>
        <_>
          <internalNodes>
            0 -1 595 -1.1975222732871771e-03</internalNodes>
          <leafValues>
            2.0834106206893921e-01 -2.4594022333621979e-01</leafValues></_></weakClassifiers></_>
    <!-- stage 10 -->
    <_>
      <maxWeakCount>38</maxWeakCount>
      <stageThreshold>-1.5531483888626099e+00</stageThreshold>
      <weakClassifiers>
        <_>
          <internalNodes>
            0 -1 13 -7.4363157153129578e-02</internalNodes>
          <leafValues>
            4.1187927126884460e-01 -3.4187123179435730e-01</leafValues></_>
        <_>
          <internalNodes>
            0 -1 149 1.5454895328730345e-03</internalNodes>
          <leafValues>
            -4.7294351458549500e-01 2.7549019455909729e-01</leafValues></_>
        <_>
          <internalNodes>
            0 -1 339 -3.0333850532770157e-02</internalNodes>
          <leafValues>
            2.6443290710449219e-01 -3.4931826591491699e-01</leafValues></_>
        <_>
          <internalNodes>
            0 -1 463 3.5275281406939030e-03</internalNodes>
          <leafValues>
            -3.4953859448432922e-01 2.1419858932495117e-01</leafValues></_>
        <_>
          <internalNodes>
            0 -1 437 -5.7487434241920710e-04</internalNodes>
          <leafValues>
            1.6340214014053345e-01 -3.9865285158157349e-01</leafValues></_>
        <_>
          <internalNodes>
            0 -1 68 -7.3357656598091125e-02</internalNodes>
          <leafValues>
            -6.9270181655883789e-01 9.7272574901580811e-02</leafValues></_>
        <_>
          <internalNodes>
            0 -1 282 3.3738589845597744e-03</internalNodes>
          <leafValues>
            -1.7998921871185303e-01 3.4475979208946228e-01</leafValues></_>
        <_>
          <internalNodes>
            0 -1 626 -6.5473997965455055e-03</internalNodes>
          <leafValues>
            5.5834490060806274e-01 -1.2869866192340851e-01</leafValues></_>
        <_>
          <internalNodes>
            0 -1 230 -1.4706963300704956e-01</internalNodes>
          <leafValues>
            3.5124734044075012e-01 -1.7599491775035858e-01</leafValues></_>
        <_>
          <internalNodes>
            0 -1 627 4.7969426959753036e-03</internalNodes>
          <leafValues>
            -1.1175317317247391e-01 4.7537443041801453e-01</leafValues></_>
        <_>
          <internalNodes>
            0 -1 208 -1.0295862331986427e-02</internalNodes>
          <leafValues>
            -5.0935435295104980e-01 1.0673319548368454e-01</leafValues></_>
        <_>
          <internalNodes>
            0 -1 610 -9.2333406209945679e-03</internalNodes>
          <leafValues>
            5.0749725103378296e-01 -1.0685101896524429e-01</leafValues></_>
        <_>
          <internalNodes>
            0 -1 589 2.9397897887974977e-03</internalNodes>
          <leafValues>
            -1.4737464487552643e-01 3.5868668556213379e-01</leafValues></_>
        <_>
          <internalNodes>
            0 -1 72 1.7527297139167786e-02</internalNodes>
          <leafValues>
            8.6464226245880127e-02 -6.1371099948883057e-01</leafValues></_>
        <_>
          <internalNodes>
            0 -1 499 -2.6563657447695732e-03</internalNodes>
          <leafValues>
            3.9599999785423279e-01 -1.4258542656898499e-01</leafValues></_>
        <_>
          <internalNodes>
            0 -1 294 5.8086398988962173e-02</internalNodes>
          <leafValues>
            -1.2505355477333069e-01 4.0252664685249329e-01</leafValues></_>
        <_>
          <internalNodes>
            0 -1 4 -1.5319006051868200e-03</internalNodes>
          <leafValues>
            2.2477132081985474e-01 -3.1049785017967224e-01</leafValues></_>
        <_>
          <internalNodes>
            0 -1 304 -6.4580164849758148e-02</internalNodes>
          <leafValues>
            4.8304465413093567e-01 -1.1537918448448181e-01</leafValues></_>
        <_>
          <internalNodes>
            0 -1 427 -4.9658762291073799e-03</internalNodes>
          <leafValues>
            5.8677107095718384e-01 -8.5925981402397156e-02</leafValues></_>
        <_>
          <internalNodes>
            0 -1 427 2.1268646232783794e-03</internalNodes>
          <leafValues>
            -1.3923116028308868e-01 3.8533386588096619e-01</leafValues></_>
        <_>
          <internalNodes>
            0 -1 111 5.8434687554836273e-02</internalNodes>
          <leafValues>
            -1.6900758445262909e-01 3.1442880630493164e-01</leafValues></_>
        <_>
          <internalNodes>
            0 -1 518 3.7683252245187759e-02</internalNodes>
          <leafValues>
            6.4197160303592682e-02 -8.2096368074417114e-01</leafValues></_>
        <_>
          <internalNodes>
            0 -1 256 -2.3541959002614021e-02</internalNodes>
          <leafValues>
            4.0134385228157043e-01 -1.3731710612773895e-01</leafValues></_>
        <_>
          <internalNodes>
            0 -1 314 -1.1578904464840889e-02</internalNodes>
          <leafValues>
            -5.6024920940399170e-01 9.2946909368038177e-02</leafValues></_>
        <_>
          <internalNodes>
            0 -1 237 2.9202613979578018e-02</internalNodes>
          <leafValues>
            5.1085691899061203e-02 -8.4417116641998291e-01</leafValues></_>
        <_>
          <internalNodes>
            0 -1 528 3.0565440654754639e-02</internalNodes>
          <leafValues>
            4.7539830207824707e-02 -7.9568004608154297e-01</leafValues></_>
        <_>
          <internalNodes>
            0 -1 249 7.3767378926277161e-03</internalNodes>
          <leafValues>
            -1.4730328321456909e-01 3.4150722622871399e-01</leafValues></_>
        <_>
          <internalNodes>
            0 -1 564 2.0852328743785620e-03</internalNodes>
          <leafValues>
            -1.2787619233131409e-01 3.7805366516113281e-01</leafValues></_>
        <_>
          <internalNodes>
            0 -1 501 1.9979530479758978e-03</internalNodes>
          <leafValues>
            -1.5691365301609039e-01 2.8637763857841492e-01</leafValues></_>
        <_>
          <internalNodes>
            0 -1 474 2.9198640957474709e-02</internalNodes>
          <leafValues>
            6.8462543189525604e-02 -7.2189378738403320e-01</leafValues></_>
        <_>
          <internalNodes>
            0 -1 262 2.5157481431961060e-02</internalNodes>
          <leafValues>
            -1.2242421507835388e-01 4.0557947754859924e-01</leafValues></_>
        <_>
          <internalNodes>
            0 -1 87 -2.4672592990100384e-03</internalNodes>
          <leafValues>
            2.4864892661571503e-01 -1.8380275368690491e-01</leafValues></_>
        <_>
          <internalNodes>
            0 -1 227 -7.7698439359664917e-02</internalNodes>
          <leafValues>
            -6.3028526306152344e-01 7.3474928736686707e-02</leafValues></_>
        <_>
          <internalNodes>
            0 -1 505 3.9992742240428925e-02</internalNodes>
          <leafValues>
            -1.8371073901653290e-01 2.4602074921131134e-01</leafValues></_>
        <_>
          <internalNodes>
            0 -1 368 5.8296537026762962e-03</internalNodes>
          <leafValues>
            -1.1251738667488098e-01 4.2004933953285217e-01</leafValues></_>
        <_>
          <internalNodes>
            0 -1 96 2.1095454692840576e-02</internalNodes>
          <leafValues>
            8.1197403371334076e-02 -6.0071372985839844e-01</leafValues></_>
        <_>
          <internalNodes>
            0 -1 568 -9.1187907382845879e-03</internalNodes>
          <leafValues>
            3.6223012208938599e-01 -1.2563255429267883e-01</leafValues></_>
        <_>
          <internalNodes>
            0 -1 328 1.2550696730613708e-02</internalNodes>
          <leafValues>
            7.1588687598705292e-02 -7.2992944717407227e-01</leafValues></_></weakClassifiers></_>
    <!-- stage 11 -->
    <_>
      <maxWeakCount>40</maxWeakCount>
      <stageThreshold>-1.5807070732116699e+00</stageThreshold>
      <weakClassifiers>
        <_>
          <internalNodes>
            0 -1 381 1.0240731388330460e-01</internalNodes>
          <leafValues>
            -2.5627100467681885e-01 4.8768955469131470e-01</leafValues></_>
        <_>
          <internalNodes>
            0 -1 385 -4.1892338544130325e-02</internalNodes>
          <leafValues>
            3.7550622224807739e-01 -2.4981707334518433e-01</leafValues></_>
        <_>
          <internalNodes>
            0 -1 21 -2.9849898070096970e-02</internalNodes>
          <leafValues>
            3.6845627427101135e-01 -2.4392868578433990e-01</leafValues></_>
        <_>
          <internalNodes>
            0 -1 554 9.7191135864704847e-05</internalNodes>
          <leafValues>
            -4.3167614936828613e-01 2.0924581587314606e-01</leafValues></_>
        <_>
          <internalNodes>
            0 -1 117 -5.5813365615904331e-03</internalNodes>
          <leafValues>
            2.6597726345062256e-01 -2.3018309473991394e-01</leafValues></_>
        <_>
          <internalNodes>
            0 -1 186 4.0150870336219668e-04</internalNodes>
          <leafValues>
            -3.2880321145057678e-01 1.8414226174354553e-01</leafValues></_>
        <_>
          <internalNodes>
            0 -1 329 8.5485475137829781e-03</internalNodes>
          <leafValues>
            1.0672545433044434e-01 -4.9756503105163574e-01</leafValues></_>
        <_>
          <internalNodes>
            0 -1 8 -4.0718749165534973e-02</internalNodes>
          <leafValues>
            1.7699433863162994e-01 -2.8995940089225769e-01</leafValues></_>
        <_>
          <internalNodes>
            0 -1 444 -4.8242867924273014e-03</internalNodes>
          <leafValues>
            5.0365573167800903e-01 -1.2044560909271240e-01</leafValues></_>
        <_>
          <internalNodes>
            0 -1 559 8.5210688412189484e-03</internalNodes>
          <leafValues>
            -1.0987300425767899e-01 4.1403347253799438e-01</leafValues></_>
        <_>
          <internalNodes>
            0 -1 353 2.2608917206525803e-02</internalNodes>
          <leafValues>
            -1.3664394617080688e-01 3.5705205798149109e-01</leafValues></_>
        <_>
          <internalNodes>
            0 -1 304 -7.7339820563793182e-02</internalNodes>
          <leafValues>
            5.4946488142013550e-01 -1.1401711404323578e-01</leafValues></_>
        <_>
          <internalNodes>
            0 -1 618 2.8991578146815300e-03</internalNodes>
          <leafValues>
            -1.6344562172889709e-01 3.4520760178565979e-01</leafValues></_>
        <_>
          <internalNodes>
            0 -1 636 2.0183525979518890e-02</internalNodes>
          <leafValues>
            -8.9344672858715057e-02 5.9044879674911499e-01</leafValues></_>
        <_>
          <internalNodes>
            0 -1 539 7.3496778495609760e-03</internalNodes>
          <leafValues>
            -1.3121050596237183e-01 3.7997984886169434e-01</leafValues></_>
        <_>
          <internalNodes>
            0 -1 113 3.3569484949111938e-02</internalNodes>
          <leafValues>
            -2.0590125024318695e-01 2.7631363272666931e-01</leafValues></_>
        <_>
          <internalNodes>
            0 -1 426 -5.4969526827335358e-03</internalNodes>
          <leafValues>
            5.9516680240631104e-01 -9.4868071377277374e-02</leafValues></_>
        <_>
          <internalNodes>
            0 -1 264 7.4489355087280273e-02</internalNodes>
          <leafValues>
            -1.0682531446218491e-01 5.2292495965957642e-01</leafValues></_>
        <_>
          <internalNodes>
            0 -1 44 1.3019520789384842e-02</internalNodes>
          <leafValues>
            -1.2866467237472534e-01 4.3829324841499329e-01</leafValues></_>
        <_>
          <internalNodes>
            0 -1 576 5.2509354427456856e-03</internalNodes>
          <leafValues>
            -9.2564046382904053e-02 5.5749505758285522e-01</leafValues></_>
        <_>
          <internalNodes>
            0 -1 605 6.4428644254803658e-03</internalNodes>
          <leafValues>
            -7.7829904854297638e-02 5.8372104167938232e-01</leafValues></_>
        <_>
          <internalNodes>
            0 -1 188 1.3202961534261703e-02</internalNodes>
          <leafValues>
            1.1026212573051453e-01 -5.4144144058227539e-01</leafValues></_>
        <_>
          <internalNodes>
            0 -1 606 -5.3361721802502871e-04</internalNodes>
          <leafValues>
            -5.1944476366043091e-01 8.7531201541423798e-02</leafValues></_>
        <_>
          <internalNodes>
            0 -1 606 5.5534293642267585e-04</internalNodes>
          <leafValues>
            1.1057657003402710e-01 -4.9563992023468018e-01</leafValues></_>
        <_>
          <internalNodes>
            0 -1 159 3.9823865517973900e-03</internalNodes>
          <leafValues>
            -1.2184511125087738e-01 4.1844427585601807e-01</leafValues></_>
        <_>
          <internalNodes>
            0 -1 132 -2.3264357820153236e-02</internalNodes>
          <leafValues>
            -7.9722374677658081e-01 7.1582689881324768e-02</leafValues></_>
        <_>
          <internalNodes>
            0 -1 146 -8.2372231408953667e-03</internalNodes>
          <leafValues>
            5.0038629770278931e-01 -1.1216344684362411e-01</leafValues></_>
        <_>
          <internalNodes>
            0 -1 88 1.5259673818945885e-02</internalNodes>
          <leafValues>
            8.3989091217517853e-02 -6.6104924678802490e-01</leafValues></_>
        <_>
          <internalNodes>
            0 -1 126 5.1387697458267212e-02</internalNodes>
          <leafValues>
            6.0462828725576401e-02 -6.6904044151306152e-01</leafValues></_>
        <_>
          <internalNodes>
            0 -1 299 2.2031269967556000e-02</internalNodes>
          <leafValues>
            -1.1927364766597748e-01 4.4286268949508667e-01</leafValues></_>
        <_>
          <internalNodes>
            0 -1 49 -1.4129197224974632e-02</internalNodes>
          <leafValues>
            6.1798155307769775e-01 -7.7997103333473206e-02</leafValues></_>
        <_>
          <internalNodes>
            0 -1 333 -3.3440692350268364e-03</internalNodes>
          <leafValues>
            5.2760440111160278e-01 -8.0685354769229889e-02</leafValues></_>
        <_>
          <internalNodes>
            0 -1 104 2.5899801403284073e-03</internalNodes>
          <leafValues>
            -1.2223646789789200e-01 3.5331523418426514e-01</leafValues></_>
        <_>
          <internalNodes>
            0 -1 51 2.3959737271070480e-02</internalNodes>
          <leafValues>
            7.2466522455215454e-02 -6.6859388351440430e-01</leafValues></_>
        <_>
          <internalNodes>
            0 -1 216 8.8134016841650009e-03</internalNodes>
          <leafValues>
            -2.6509776711463928e-01 1.6125535964965820e-01</leafValues></_>
        <_>
          <internalNodes>
            0 -1 274 9.9865868687629700e-03</internalNodes>
          <leafValues>
            7.8276775777339935e-02 -5.7585602998733521e-01</leafValues></_>
        <_>
          <internalNodes>
            0 -1 321 1.3708556070923805e-02</internalNodes>
          <leafValues>
            5.4657351225614548e-02 -7.1784818172454834e-01</leafValues></_>
        <_>
          <internalNodes>
            0 -1 436 1.7522208392620087e-02</internalNodes>
          <leafValues>
            7.7346630394458771e-02 -5.0080072879791260e-01</leafValues></_>
        <_>
          <internalNodes>
            0 -1 324 -1.2238257564604282e-02</internalNodes>
          <leafValues>
            3.6134019494056702e-01 -1.2912507355213165e-01</leafValues></_>
        <_>
          <internalNodes>
            0 -1 384 3.4617528319358826e-02</internalNodes>
          <leafValues>
            -8.9742340147495270e-02 4.7491481900215149e-01</leafValues></_></weakClassifiers></_>
    <!-- stage 12 -->
    <_>
      <maxWeakCount>43</maxWeakCount>
      <stageThreshold>-1.5766292810440063e+00</stageThreshold>
      <weakClassifiers>
        <_>
          <internalNodes>
            0 -1 380 4.2884103953838348e-02</internalNodes>
          <leafValues>
            -3.0129390954971313e-01 3.8588073849678040e-01</leafValues></_>
        <_>
          <internalNodes>
            0 -1 150 6.0920184478163719e-03</internalNodes>
          <leafValues>
            -3.8026595115661621e-01 2.1770615875720978e-01</leafValues></_>
        <_>
          <internalNodes>
            0 -1 116 1.3347374275326729e-02</internalNodes>
          <leafValues>
            -3.0521705746650696e-01 2.6127606630325317e-01</leafValues></_>
        <_>
          <internalNodes>
            0 -1 136 -1.5245741605758667e-01</internalNodes>
          <leafValues>
            3.4488725662231445e-01 -2.1326151490211487e-01</leafValues></_>
        <_>
          <internalNodes>
            0 -1 198 1.6008976846933365e-02</internalNodes>
          <leafValues>
            -1.9351597130298615e-01 3.3994099497795105e-01</leafValues></_>
        <_>
          <internalNodes>
            0 -1 442 -4.5372475869953632e-03</internalNodes>
          <leafValues>
            5.2494299411773682e-01 -1.3312341272830963e-01</leafValues></_>
        <_>
          <internalNodes>
            0 -1 491 -1.1718201858457178e-04</internalNodes>
          <leafValues>
            2.4021217226982117e-01 -2.3973616957664490e-01</leafValues></_>
        <_>
          <internalNodes>
            0 -1 442 2.3570759221911430e-03</internalNodes>
          <leafValues>
            -1.4992800354957581e-01 3.8042116165161133e-01</leafValues></_>
        <_>
          <internalNodes>
            0 -1 46 1.3059955835342407e-01</internalNodes>
          <leafValues>
            -1.1758616566658020e-01 4.6693044900894165e-01</leafValues></_>
        <_>
          <internalNodes>
            0 -1 255 3.3937148749828339e-02</internalNodes>
          <leafValues>
            -1.0966952890157700e-01 5.7393568754196167e-01</leafValues></_>
        <_>
          <internalNodes>
            0 -1 91 -1.5166997909545898e-02</internalNodes>
          <leafValues>
            -7.3032307624816895e-01 9.1633707284927368e-02</leafValues></_>
        <_>
          <internalNodes>
            0 -1 137 -7.2440698742866516e-02</internalNodes>
          <leafValues>
            -7.4707293510437012e-01 5.0654157996177673e-02</leafValues></_>
        <_>
          <internalNodes>
            0 -1 17 1.7900857329368591e-01</internalNodes>
          <leafValues>
            7.1839258074760437e-02 -6.0881024599075317e-01</leafValues></_>
        <_>
          <internalNodes>
            0 -1 0 6.2174606136977673e-04</internalNodes>
          <leafValues>
            7.7692404389381409e-02 -5.4508644342422485e-01</leafValues></_>
        <_>
          <internalNodes>
            0 -1 0 -2.9991232440806925e-04</internalNodes>
          <leafValues>
            -4.3771988153457642e-01 1.2287770211696625e-01</leafValues></_>
        <_>
          <internalNodes>
            0 -1 366 -3.0122511088848114e-02</internalNodes>
          <leafValues>
            -6.3640731573104858e-01 7.2199277579784393e-02</leafValues></_>
        <_>
          <internalNodes>
            0 -1 551 2.0663920789957047e-02</internalNodes>
          <leafValues>
            4.8421423882246017e-02 -7.5872564315795898e-01</leafValues></_>
        <_>
          <internalNodes>
            0 -1 567 -4.3642167001962662e-03</internalNodes>
          <leafValues>
            2.5627437233924866e-01 -1.8167641758918762e-01</leafValues></_>
        <_>
          <internalNodes>
            0 -1 542 -4.9861054867506027e-03</internalNodes>
          <leafValues>
            6.0754030942916870e-01 -7.4136026203632355e-02</leafValues></_>
        <_>
          <internalNodes>
            0 -1 502 -1.9145406782627106e-02</internalNodes>
          <leafValues>
            -6.5946424007415771e-01 7.6612509787082672e-02</leafValues></_>
        <_>
          <internalNodes>
            0 -1 554 1.9731134176254272e-02</internalNodes>
          <leafValues>
            4.8078503459692001e-02 -7.2997289896011353e-01</leafValues></_>
        <_>
          <internalNodes>
            0 -1 273 -2.1372705698013306e-02</internalNodes>
          <leafValues>
            1.4363756775856018e-01 -3.1316807866096497e-01</leafValues></_>
        <_>
          <internalNodes>
            0 -1 600 1.9580593798309565e-03</internalNodes>
          <leafValues>
            -1.5685141086578369e-01 2.8382626175880432e-01</leafValues></_>
        <_>
          <internalNodes>
            0 -1 627 5.9061162173748016e-03</internalNodes>
          <leafValues>
            -1.1772812902927399e-01 4.5257833600044250e-01</leafValues></_>
        <_>
          <internalNodes>
            0 -1 547 2.2190187126398087e-02</internalNodes>
          <leafValues>
            6.6774159669876099e-02 -7.0873618125915527e-01</leafValues></_>
        <_>
          <internalNodes>
            0 -1 515 1.4595712535083294e-02</internalNodes>
          <leafValues>
            5.7672802358865738e-02 -6.3687574863433838e-01</leafValues></_>
        <_>
          <internalNodes>
            0 -1 506 4.5576794072985649e-03</internalNodes>
          <leafValues>
            -1.5728853642940521e-01 2.7916982769966125e-01</leafValues></_>
        <_>
          <internalNodes>
            0 -1 435 3.0191200494300574e-05</internalNodes>
          <leafValues>
            -2.6476147770881653e-01 1.6661560535430908e-01</leafValues></_>
        <_>
          <internalNodes>
            0 -1 131 -2.4025674909353256e-02</internalNodes>
          <leafValues>
            -7.2466856241226196e-01 5.4671853780746460e-02</leafValues></_>
        <_>
          <internalNodes>
            0 -1 358 -7.8621739521622658e-03</internalNodes>
          <leafValues>
            -5.3445732593536377e-01 7.3561087250709534e-02</leafValues></_>
        <_>
          <internalNodes>
            0 -1 263 -6.9163635373115540e-02</internalNodes>
          <leafValues>
            5.3696668148040771e-01 -9.1790266335010529e-02</leafValues></_>
        <_>
          <internalNodes>
            0 -1 342 2.5960095226764679e-02</internalNodes>
          <leafValues>
            -1.2436620891094208e-01 3.4912747144699097e-01</leafValues></_>
        <_>
          <internalNodes>
            0 -1 265 -1.1014106124639511e-01</internalNodes>
          <leafValues>
            5.7113534212112427e-01 -7.2795495390892029e-02</leafValues></_>
        <_>
          <internalNodes>
            0 -1 211 3.8773767300881445e-05</internalNodes>
          <leafValues>
            -2.4974101781845093e-01 1.7823059856891632e-01</leafValues></_>
        <_>
          <internalNodes>
            0 -1 213 1.1531737633049488e-02</internalNodes>
          <leafValues>
            7.7794872224330902e-02 -6.0045558214187622e-01</leafValues></_>
        <_>
          <internalNodes>
            0 -1 45 2.7367427945137024e-02</internalNodes>
          <leafValues>
            -9.4193242490291595e-02 5.6856793165206909e-01</leafValues></_>
        <_>
          <internalNodes>
            0 -1 130 5.0855979323387146e-02</internalNodes>
          <leafValues>
            7.4304722249507904e-02 -6.9047379493713379e-01</leafValues></_>
        <_>
          <internalNodes>
            0 -1 540 3.3458240795880556e-03</internalNodes>
          <leafValues>
            -1.0626170039176941e-01 4.6950465440750122e-01</leafValues></_>
        <_>
          <internalNodes>
            0 -1 121 6.0644483892247081e-04</internalNodes>
          <leafValues>
            1.0522922128438950e-01 -4.6890330314636230e-01</leafValues></_>
        <_>
          <internalNodes>
            0 -1 53 -1.5447738580405712e-02</internalNodes>
          <leafValues>
            4.1161003708839417e-01 -1.1089108139276505e-01</leafValues></_>
        <_>
          <internalNodes>
            0 -1 538 2.1808322053402662e-03</internalNodes>
          <leafValues>
            -1.1026805639266968e-01 3.7909552454948425e-01</leafValues></_>
        <_>
          <internalNodes>
            0 -1 40 4.7187209129333496e-02</internalNodes>
          <leafValues>
            5.6411907076835632e-02 -8.4176665544509888e-01</leafValues></_>
        <_>
          <internalNodes>
            0 -1 530 -4.3201496009714901e-04</internalNodes>
          <leafValues>
            1.5919078886508942e-01 -2.3756213486194611e-01</leafValues></_></weakClassifiers></_>
    <!-- stage 13 -->
    <_>
      <maxWeakCount>48</maxWeakCount>
      <stageThreshold>-1.4827297925949097e+00</stageThreshold>
      <weakClassifiers>
        <_>
          <internalNodes>
            0 -1 5 -7.6597303152084351e-02</internalNodes>
          <leafValues>
            3.9595416188240051e-01 -2.7260321378707886e-01</leafValues></_>
        <_>
          <internalNodes>
            0 -1 18 -4.2124222964048386e-03</internalNodes>
          <leafValues>
            2.4221979081630707e-01 -3.2804247736930847e-01</leafValues></_>
        <_>
          <internalNodes>
            0 -1 346 -6.7721635103225708e-02</internalNodes>
          <leafValues>
            3.4816020727157593e-01 -2.3615024983882904e-01</leafValues></_>
        <_>
          <internalNodes>
            0 -1 580 -1.2807542458176613e-02</internalNodes>
          <leafValues>
            3.7867879867553711e-01 -1.7543067038059235e-01</leafValues></_>
        <_>
          <internalNodes>
            0 -1 361 -1.5754757914692163e-03</internalNodes>
          <leafValues>
            1.7273405194282532e-01 -3.5489127039909363e-01</leafValues></_>
        <_>
          <internalNodes>
            0 -1 485 1.7132749781012535e-03</internalNodes>
          <leafValues>
            -1.6759397089481354e-01 3.5995528101921082e-01</leafValues></_>
        <_>
          <internalNodes>
            0 -1 487 2.1973261609673500e-03</internalNodes>
          <leafValues>
            -1.3455830514431000e-01 4.0516996383666992e-01</leafValues></_>
        <_>
          <internalNodes>
            0 -1 457 -1.4852009480819106e-03</internalNodes>
          <leafValues>
            2.9481571912765503e-01 -1.4817966520786285e-01</leafValues></_>
        <_>
          <internalNodes>
            0 -1 553 1.7998130992054939e-02</internalNodes>
          <leafValues>
            7.9655230045318604e-02 -6.6079807281494141e-01</leafValues></_>
        <_>
          <internalNodes>
            0 -1 239 2.5510729756206274e-04</internalNodes>
          <leafValues>
            -2.4621435999870300e-01 1.7899961769580841e-01</leafValues></_>
        <_>
          <internalNodes>
            0 -1 254 -2.8620394878089428e-03</internalNodes>
          <leafValues>
            2.6299306750297546e-01 -1.7971345782279968e-01</leafValues></_>
        <_>
          <internalNodes>
            0 -1 332 -6.5815160050988197e-03</internalNodes>
          <leafValues>
            4.9004894495010376e-01 -9.9660836160182953e-02</leafValues></_>
        <_>
          <internalNodes>
            0 -1 369 2.8935750015079975e-03</internalNodes>
          <leafValues>
            -1.1704628169536591e-01 4.0896061062812805e-01</leafValues></_>
        <_>
          <internalNodes>
            0 -1 109 1.4186785556375980e-02</internalNodes>
          <leafValues>
            -2.5609123706817627e-01 1.7206035554409027e-01</leafValues></_>
        <_>
          <internalNodes>
            0 -1 456 2.7846363373100758e-03</internalNodes>
          <leafValues>
            -1.2710390985012054e-01 3.8548672199249268e-01</leafValues></_>
        <_>
          <internalNodes>
            0 -1 97 -1.7222883179783821e-02</internalNodes>
          <leafValues>
            -6.0710155963897705e-01 7.6102524995803833e-02</leafValues></_>
        <_>
          <internalNodes>
            0 -1 448 -4.3451763689517975e-02</internalNodes>
          <leafValues>
            4.1314315795898438e-01 -1.0011816769838333e-01</leafValues></_>
        <_>
          <internalNodes>
            0 -1 41 -1.4372357726097107e-01</internalNodes>
          <leafValues>
            4.3035414814949036e-01 -1.0564686357975006e-01</leafValues></_>
        <_>
          <internalNodes>
            0 -1 20 2.9207670688629150e-01</internalNodes>
          <leafValues>
            5.4723720997571945e-02 -7.7233743667602539e-01</leafValues></_>
        <_>
          <internalNodes>
            0 -1 516 -3.9396367967128754e-02</internalNodes>
          <leafValues>
            -4.6406790614128113e-01 8.3857461810112000e-02</leafValues></_>
        <_>
          <internalNodes>
            0 -1 71 7.6032392680644989e-03</internalNodes>
          <leafValues>
            -1.0116753727197647e-01 4.2476007342338562e-01</leafValues></_>
        <_>
          <internalNodes>
            0 -1 60 -8.2053616642951965e-03</internalNodes>
          <leafValues>
            4.0321919322013855e-01 -1.0935452580451965e-01</leafValues></_>
        <_>
          <internalNodes>
            0 -1 231 8.1998109817504883e-02</internalNodes>
          <leafValues>
            -1.3897685706615448e-01 2.9665875434875488e-01</leafValues></_>
        <_>
          <internalNodes>
            0 -1 306 -8.5712268948554993e-02</internalNodes>
          <leafValues>
            5.8062320947647095e-01 -7.0278093218803406e-02</leafValues></_>
        <_>
          <internalNodes>
            0 -1 289 -1.8491271883249283e-02</internalNodes>
          <leafValues>
            3.5767808556556702e-01 -1.0692381113767624e-01</leafValues></_>
        <_>
          <internalNodes>
            0 -1 374 2.4490819778293371e-03</internalNodes>
          <leafValues>
            -1.0721366107463837e-01 3.7295368313789368e-01</leafValues></_>
        <_>
          <internalNodes>
            0 -1 453 2.2979980334639549e-02</internalNodes>
          <leafValues>
            6.3176319003105164e-02 -7.0083993673324585e-01</leafValues></_>
        <_>
          <internalNodes>
            0 -1 599 1.8779360689222813e-03</internalNodes>
          <leafValues>
            -2.0591469109058380e-01 1.9399791955947876e-01</leafValues></_>
        <_>
          <internalNodes>
            0 -1 630 3.3283852972090244e-03</internalNodes>
          <leafValues>
            -1.1584313213825226e-01 4.2688724398612976e-01</leafValues></_>
        <_>
          <internalNodes>
            0 -1 78 3.5722952336072922e-02</internalNodes>
          <leafValues>
            9.7686447203159332e-02 -4.3671312928199768e-01</leafValues></_>
        <_>
          <internalNodes>
            0 -1 178 -1.5879906713962555e-02</internalNodes>
          <leafValues>
            -7.0835757255554199e-01 5.2333664149045944e-02</leafValues></_>
        <_>
          <internalNodes>
            0 -1 214 2.3597897961735725e-02</internalNodes>
          <leafValues>
            5.1573649048805237e-02 -6.4120137691497803e-01</leafValues></_>
        <_>
          <internalNodes>
            0 -1 327 8.2285329699516296e-03</internalNodes>
          <leafValues>
            6.3524909317493439e-02 -5.8117949962615967e-01</leafValues></_>
        <_>
          <internalNodes>
            0 -1 367 1.8347684526816010e-03</internalNodes>
          <leafValues>
            -1.4661484956741333e-01 2.8088581562042236e-01</leafValues></_>
        <_>
          <internalNodes>
            0 -1 632 -2.1781537681818008e-02</internalNodes>
          <leafValues>
            4.7718462347984314e-01 -8.1099346280097961e-02</leafValues></_>
        <_>
          <internalNodes>
            0 -1 589 2.6095968205481768e-03</internalNodes>
          <leafValues>
            -1.3597238063812256e-01 2.9284626245498657e-01</leafValues></_>
        <_>
          <internalNodes>
            0 -1 527 2.0840346813201904e-02</internalNodes>
          <leafValues>
            6.1111491173505783e-02 -7.1105843782424927e-01</leafValues></_>
        <_>
          <internalNodes>
            0 -1 316 3.4422449767589569e-02</internalNodes>
          <leafValues>
            -1.0873997211456299e-01 4.1322785615921021e-01</leafValues></_>
        <_>
          <internalNodes>
            0 -1 196 -1.2187231332063675e-02</internalNodes>
          <leafValues>
            3.8352137804031372e-01 -1.0457141697406769e-01</leafValues></_>
        <_>
          <internalNodes>
            0 -1 522 -2.5726366788148880e-02</internalNodes>
          <leafValues>
            -6.8285483121871948e-01 6.3531406223773956e-02</leafValues></_>
        <_>
          <internalNodes>
            0 -1 465 5.8768065646290779e-03</internalNodes>
          <leafValues>
            -1.4329297840595245e-01 2.6847723126411438e-01</leafValues></_>
        <_>
          <internalNodes>
            0 -1 325 6.7979306913912296e-03</internalNodes>
          <leafValues>
            6.5619908273220062e-02 -6.3269549608230591e-01</leafValues></_>
        <_>
          <internalNodes>
            0 -1 416 3.9020054042339325e-02</internalNodes>
          <leafValues>
            -1.1465186625719070e-01 3.5883417725563049e-01</leafValues></_>
        <_>
          <internalNodes>
            0 -1 462 4.9138691276311874e-02</internalNodes>
          <leafValues>
            5.4161556065082550e-02 -7.6183247566223145e-01</leafValues></_>
        <_>
          <internalNodes>
            0 -1 382 2.6668604463338852e-02</internalNodes>
          <leafValues>
            6.4824171364307404e-02 -5.3910028934478760e-01</leafValues></_>
        <_>
          <internalNodes>
            0 -1 532 9.3660014681518078e-04</internalNodes>
          <leafValues>
            -2.1965646743774414e-01 1.8441219627857208e-01</leafValues></_>
        <_>
          <internalNodes>
            0 -1 281 -5.5196564644575119e-03</internalNodes>
          <leafValues>
            5.6447482109069824e-01 -6.7646682262420654e-02</leafValues></_>
        <_>
          <internalNodes>
            0 -1 341 3.2516745850443840e-03</internalNodes>
          <leafValues>
            -1.5540616214275360e-01 2.3248673975467682e-01</leafValues></_></weakClassifiers></_>
    <!-- stage 14 -->
    <_>
      <maxWeakCount>54</maxWeakCount>
      <stageThreshold>-1.4819414615631104e+00</stageThreshold>
      <weakClassifiers>
        <_>
          <internalNodes>
            0 -1 13 -1.1077824234962463e-01</internalNodes>
          <leafValues>
            4.2324841022491455e-01 -1.7688171565532684e-01</leafValues></_>
        <_>
          <internalNodes>
            0 -1 149 3.3612877596169710e-03</internalNodes>
          <leafValues>
            -3.5493484139442444e-01 2.3059332370758057e-01</leafValues></_>
        <_>
          <internalNodes>
            0 -1 160 2.9956565704196692e-03</internalNodes>
          <leafValues>
            -3.2474431395530701e-01 2.0879277586936951e-01</leafValues></_>
        <_>
          <internalNodes>
            0 -1 298 -1.0685285925865173e-01</internalNodes>
          <leafValues>
            3.4909883141517639e-01 -1.8315429985523224e-01</leafValues></_>
        <_>
          <internalNodes>
            0 -1 195 4.8498124815523624e-03</internalNodes>
          <leafValues>
            -2.8354889154434204e-01 1.7364805936813354e-01</leafValues></_>
        <_>
          <internalNodes>
            0 -1 493 -1.0338568972656503e-04</internalNodes>
          <leafValues>
            1.9660358130931854e-01 -2.4230024218559265e-01</leafValues></_>
        <_>
          <internalNodes>
            0 -1 17 -1.4329248666763306e-01</internalNodes>
          <leafValues>
            -6.2250757217407227e-01 6.1418715864419937e-02</leafValues></_>
        <_>
          <internalNodes>
            0 -1 484 -3.1681058462709188e-03</internalNodes>
          <leafValues>
            4.7505822777748108e-01 -9.4374328851699829e-02</leafValues></_>
        <_>
          <internalNodes>
            0 -1 485 2.5958050973713398e-03</internalNodes>
          <leafValues>
            -1.0384997725486755e-01 3.8961973786354065e-01</leafValues></_>
        <_>
          <internalNodes>
            0 -1 22 -4.1563987731933594e-02</internalNodes>
          <leafValues>
            2.5715130567550659e-01 -1.7830927670001984e-01</leafValues></_>
        <_>
          <internalNodes>
            0 -1 206 1.2015284970402718e-02</internalNodes>
          <leafValues>
            -1.7396274209022522e-01 2.5801259279251099e-01</leafValues></_>
        <_>
          <internalNodes>
            0 -1 283 3.6763479001820087e-03</internalNodes>
          <leafValues>
            -1.0848014056682587e-01 4.2485436797142029e-01</leafValues></_>
        <_>
          <internalNodes>
            0 -1 38 -1.2194867432117462e-01</internalNodes>
          <leafValues>
            3.8690307736396790e-01 -1.0679589956998825e-01</leafValues></_>
        <_>
          <internalNodes>
            0 -1 304 6.5861955285072327e-02</internalNodes>
          <leafValues>
            -1.2731568515300751e-01 4.5487034320831299e-01</leafValues></_>
        <_>
          <internalNodes>
            0 -1 540 -5.5942535400390625e-03</internalNodes>
          <leafValues>
            5.7767838239669800e-01 -6.3249029219150543e-02</leafValues></_>
        <_>
          <internalNodes>
            0 -1 14 -1.1238136794418097e-03</internalNodes>
          <leafValues>
            9.4554953277111053e-02 -4.1029083728790283e-01</leafValues></_>
        <_>
          <internalNodes>
            0 -1 89 -1.9230692414566875e-03</internalNodes>
          <leafValues>
            2.2979216277599335e-01 -1.7028822004795074e-01</leafValues></_>
        <_>
          <internalNodes>
            0 -1 209 -1.5097159892320633e-02</internalNodes>
          <leafValues>
            -8.1758832931518555e-01 5.3160373121500015e-02</leafValues></_>
        <_>
          <internalNodes>
            0 -1 83 -2.1781649440526962e-02</internalNodes>
          <leafValues>
            -7.0542508363723755e-01 3.8180068135261536e-02</leafValues></_>
        <_>
          <internalNodes>
            0 -1 488 1.6649957746267319e-02</internalNodes>
          <leafValues>
            4.2458239942789078e-02 -6.9256114959716797e-01</leafValues></_>
        <_>
          <internalNodes>
            0 -1 498 1.3936595059931278e-03</internalNodes>
          <leafValues>
            -1.3666321337223053e-01 2.6903110742568970e-01</leafValues></_>
        <_>
          <internalNodes>
            0 -1 257 1.7855364829301834e-02</internalNodes>
          <leafValues>
            -5.9572573751211166e-02 5.6073164939880371e-01</leafValues></_>
        <_>
          <internalNodes>
            0 -1 319 2.7445901185274124e-02</internalNodes>
          <leafValues>
            -1.9846217334270477e-01 1.8650488555431366e-01</leafValues></_>
        <_>
          <internalNodes>
            0 -1 189 -5.6358523666858673e-02</internalNodes>
          <leafValues>
            -7.5371754169464111e-01 5.2427697926759720e-02</leafValues></_>
        <_>
          <internalNodes>
            0 -1 393 -5.9276863932609558e-02</internalNodes>
          <leafValues>
            5.3388279676437378e-01 -8.4858812391757965e-02</leafValues></_>
        <_>
          <internalNodes>
            0 -1 34 -1.4990811236202717e-02</internalNodes>
          <leafValues>
            3.4546333551406860e-01 -9.6091464161872864e-02</leafValues></_>
        <_>
          <internalNodes>
            0 -1 386 1.6682513058185577e-02</internalNodes>
          <leafValues>
            -1.2646614015102386e-01 2.8716534376144409e-01</leafValues></_>
        <_>
          <internalNodes>
            0 -1 392 1.6416091471910477e-02</internalNodes>
          <leafValues>
            5.5507797747850418e-02 -7.0605468750000000e-01</leafValues></_>
        <_>
          <internalNodes>
            0 -1 238 2.0122632384300232e-02</internalNodes>
          <leafValues>
            3.7955887615680695e-02 -7.5455254316329956e-01</leafValues></_>
        <_>
          <internalNodes>
            0 -1 110 -2.8028955683112144e-02</internalNodes>
          <leafValues>
            -6.6467607021331787e-01 4.4562865048646927e-02</leafValues></_>
        <_>
          <internalNodes>
            0 -1 500 2.8335235547274351e-03</internalNodes>
          <leafValues>
            -1.0981088876724243e-01 3.5079765319824219e-01</leafValues></_>
        <_>
          <internalNodes>
            0 -1 566 -8.4509886801242828e-04</internalNodes>
          <leafValues>
            -3.9389818906784058e-01 9.4910562038421631e-02</leafValues></_>
        <_>
          <internalNodes>
            0 -1 446 4.0875732898712158e-02</internalNodes>
          <leafValues>
            -8.8332921266555786e-02 4.5914354920387268e-01</leafValues></_>
        <_>
          <internalNodes>
            0 -1 638 -1.2602712959051132e-02</internalNodes>
          <leafValues>
            3.4522786736488342e-01 -1.0622794181108475e-01</leafValues></_>
        <_>
          <internalNodes>
            0 -1 536 -2.1032676100730896e-02</internalNodes>
          <leafValues>
            -7.8735762834548950e-01 4.9226824194192886e-02</leafValues></_>
        <_>
          <internalNodes>
            0 -1 543 2.3223026655614376e-03</internalNodes>
          <leafValues>
            -9.9229186773300171e-02 3.7040439248085022e-01</leafValues></_>
        <_>
          <internalNodes>
            0 -1 578 -2.3866716772317886e-02</internalNodes>
          <leafValues>
            3.3972388505935669e-01 -1.0251265764236450e-01</leafValues></_>
        <_>
          <internalNodes>
            0 -1 359 -6.9235786795616150e-03</internalNodes>
          <leafValues>
            -5.6869488954544067e-01 6.2516734004020691e-02</leafValues></_>
        <_>
          <internalNodes>
            0 -1 192 9.6881091594696045e-03</internalNodes>
          <leafValues>
            -9.7744069993495941e-02 3.5871505737304688e-01</leafValues></_>
        <_>
          <internalNodes>
            0 -1 192 -1.9471758976578712e-02</internalNodes>
          <leafValues>
            5.4237180948257446e-01 -6.2834486365318298e-02</leafValues></_>
        <_>
          <internalNodes>
            0 -1 142 1.7270077019929886e-02</internalNodes>
          <leafValues>
            5.3731735795736313e-02 -7.4628102779388428e-01</leafValues></_>
        <_>
          <internalNodes>
            0 -1 287 -6.1706878244876862e-02</internalNodes>
          <leafValues>
            4.8717620968818665e-01 -8.2187227904796600e-02</leafValues></_>
        <_>
          <internalNodes>
            0 -1 210 1.5634595183655620e-04</internalNodes>
          <leafValues>
            -1.9555988907814026e-01 2.0678482949733734e-01</leafValues></_>
        <_>
          <internalNodes>
            0 -1 224 6.1448952183127403e-03</internalNodes>
          <leafValues>
            -1.1880711466073990e-01 2.7990525960922241e-01</leafValues></_>
        <_>
          <internalNodes>
            0 -1 244 -1.9730526953935623e-02</internalNodes>
          <leafValues>
            -6.8148732185363770e-01 5.2108846604824066e-02</leafValues></_>
        <_>
          <internalNodes>
            0 -1 573 6.4226062968373299e-03</internalNodes>
          <leafValues>
            -7.6265312731266022e-02 4.7921484708786011e-01</leafValues></_>
        <_>
          <internalNodes>
            0 -1 546 4.9047730863094330e-03</internalNodes>
          <leafValues>
            -8.2744799554347992e-02 4.0266513824462891e-01</leafValues></_>
        <_>
          <internalNodes>
            0 -1 108 -9.1468240134418011e-04</internalNodes>
          <leafValues>
            1.2473320215940475e-01 -2.7797058224678040e-01</leafValues></_>
        <_>
          <internalNodes>
            0 -1 582 1.8258427735418081e-04</internalNodes>
          <leafValues>
            1.0726562142372131e-01 -3.2783815264701843e-01</leafValues></_>
        <_>
          <internalNodes>
            0 -1 235 6.9893822073936462e-02</internalNodes>
          <leafValues>
            -1.1763761192560196e-01 3.1571638584136963e-01</leafValues></_>
        <_>
          <internalNodes>
            0 -1 296 -1.9039295613765717e-02</internalNodes>
          <leafValues>
            3.1316006183624268e-01 -1.1364453285932541e-01</leafValues></_>
        <_>
          <internalNodes>
            0 -1 593 -1.7112209461629391e-03</internalNodes>
          <leafValues>
            4.0708667039871216e-01 -8.0941610038280487e-02</leafValues></_>
        <_>
          <internalNodes>
            0 -1 418 -9.4504579901695251e-03</internalNodes>
          <leafValues>
            -7.1089780330657959e-01 5.5318731814622879e-02</leafValues></_>
        <_>
          <internalNodes>
            0 -1 6 1.7712928354740143e-02</internalNodes>
          <leafValues>
            7.8395396471023560e-02 -4.1806766390800476e-01</leafValues></_></weakClassifiers></_>
    <!-- stage 15 -->
    <_>
      <maxWeakCount>55</maxWeakCount>
      <stageThreshold>-1.4570068120956421e+00</stageThreshold>
      <weakClassifiers>
        <_>
          <internalNodes>
            0 -1 128 -1.9405926577746868e-03</internalNodes>
          <leafValues>
            3.6263430118560791e-01 -2.1143664419651031e-01</leafValues></_>
        <_>
          <internalNodes>
            0 -1 268 4.6804990619421005e-02</internalNodes>
          <leafValues>
            -3.4067878127098083e-01 2.2252582013607025e-01</leafValues></_>
        <_>
          <internalNodes>
            0 -1 77 -3.2495139166712761e-03</internalNodes>
          <leafValues>
            2.6129513978958130e-01 -2.6877766847610474e-01</leafValues></_>
        <_>
          <internalNodes>
            0 -1 483 3.7342179566621780e-03</internalNodes>
          <leafValues>
            -2.5458136200904846e-01 2.0510227978229523e-01</leafValues></_>
        <_>
          <internalNodes>
            0 -1 514 3.1648259609937668e-02</internalNodes>
          <leafValues>
            1.2273341417312622e-01 -4.0834301710128784e-01</leafValues></_>
        <_>
          <internalNodes>
            0 -1 177 -3.0398435890674591e-02</internalNodes>
          <leafValues>
            2.3968143761157990e-01 -2.1092945337295532e-01</leafValues></_>
        <_>
          <internalNodes>
            0 -1 421 2.8627284336835146e-04</internalNodes>
          <leafValues>
            -1.8871001899242401e-01 2.2078275680541992e-01</leafValues></_>
        <_>
          <internalNodes>
            0 -1 351 3.0024211853742599e-02</internalNodes>
          <leafValues>
            -1.0425519943237305e-01 3.8763532042503357e-01</leafValues></_>
        <_>
          <internalNodes>
            0 -1 69 -2.2378589957952499e-02</internalNodes>
          <leafValues>
            -6.4939159154891968e-01 6.1258412897586823e-02</leafValues></_>
        <_>
          <internalNodes>
            0 -1 409 3.4390855580568314e-03</internalNodes>
          <leafValues>
            -9.7195886075496674e-02 4.1721224784851074e-01</leafValues></_>
        <_>
          <internalNodes>
            0 -1 269 1.4145962893962860e-02</internalNodes>
          <leafValues>
            6.9809317588806152e-02 -6.0770153999328613e-01</leafValues></_>
        <_>
          <internalNodes>
            0 -1 185 3.1562602089252323e-05</internalNodes>
          <leafValues>
            -2.8830781579017639e-01 1.2916347384452820e-01</leafValues></_>
        <_>
          <internalNodes>
            0 -1 141 1.3402360491454601e-02</internalNodes>
          <leafValues>
            4.1148643940687180e-02 -7.4254584312438965e-01</leafValues></_>
        <_>
          <internalNodes>
            0 -1 103 1.7650026129558682e-03</internalNodes>
          <leafValues>
            -1.8665143847465515e-01 2.0088097453117371e-01</leafValues></_>
        <_>
          <internalNodes>
            0 -1 54 2.3540686815977097e-02</internalNodes>
          <leafValues>
            -8.1665188074111938e-02 5.0641351938247681e-01</leafValues></_>
        <_>
          <internalNodes>
            0 -1 390 1.5247562900185585e-02</internalNodes>
          <leafValues>
            -1.4847436547279358e-01 2.8934502601623535e-01</leafValues></_>
        <_>
          <internalNodes>
            0 -1 350 -5.6073412299156189e-02</internalNodes>
          <leafValues>
            4.8165464401245117e-01 -8.4237739443778992e-02</leafValues></_>
        <_>
          <internalNodes>
            0 -1 424 3.4221257083117962e-03</internalNodes>
          <leafValues>
            -1.2307497859001160e-01 3.0705687403678894e-01</leafValues></_>
        <_>
          <internalNodes>
            0 -1 407 3.4596438053995371e-03</internalNodes>
          <leafValues>
            -1.3428926467895508e-01 2.9789587855339050e-01</leafValues></_>
        <_>
          <internalNodes>
            0 -1 411 -1.1527359485626221e-02</internalNodes>
          <leafValues>
            3.1468340754508972e-01 -1.2170072644948959e-01</leafValues></_>
        <_>
          <internalNodes>
            0 -1 492 -1.8532613292336464e-02</internalNodes>
          <leafValues>
            -6.9841718673706055e-01 5.6112468242645264e-02</leafValues></_>
        <_>
          <internalNodes>
            0 -1 601 1.7788831144571304e-02</internalNodes>
          <leafValues>
            1.0102366656064987e-01 -3.4195074439048767e-01</leafValues></_>
        <_>
          <internalNodes>
            0 -1 371 5.9282653965055943e-03</internalNodes>
          <leafValues>
            -8.5276022553443909e-02 4.6415758132934570e-01</leafValues></_>
        <_>
          <internalNodes>
            0 -1 2 1.0219120886176825e-03</internalNodes>
          <leafValues>
            8.6195729672908783e-02 -4.3650612235069275e-01</leafValues></_>
        <_>
          <internalNodes>
            0 -1 2 -3.6901759449392557e-04</internalNodes>
          <leafValues>
            -3.0741658806800842e-01 1.4804372191429138e-01</leafValues></_>
        <_>
          <internalNodes>
            0 -1 66 3.3148877322673798e-02</internalNodes>
          <leafValues>
            5.3985755890607834e-02 -6.9899874925613403e-01</leafValues></_>
        <_>
          <internalNodes>
            0 -1 603 -1.3269087299704552e-02</internalNodes>
          <leafValues>
            5.8791851997375488e-01 -6.7605562508106232e-02</leafValues></_>
        <_>
          <internalNodes>
            0 -1 604 2.6266765780746937e-03</internalNodes>
          <leafValues>
            -1.6789859533309937e-01 2.3629215359687805e-01</leafValues></_>
        <_>
          <internalNodes>
            0 -1 592 -1.7610963433980942e-02</internalNodes>
          <leafValues>
            -6.8709939718246460e-01 5.1594037562608719e-02</leafValues></_>
        <_>
          <internalNodes>
            0 -1 154 9.7486935555934906e-03</internalNodes>
          <leafValues>
            4.4954840093851089e-02 -6.5160220861434937e-01</leafValues></_>
        <_>
          <internalNodes>
            0 -1 330 2.1976938471198082e-02</internalNodes>
          <leafValues>
            3.9663448929786682e-02 -7.7981495857238770e-01</leafValues></_>
        <_>
          <internalNodes>
            0 -1 372 7.3709068819880486e-03</internalNodes>
          <leafValues>
            -8.2083813846111298e-02 4.8438131809234619e-01</leafValues></_>
        <_>
          <internalNodes>
            0 -1 190 1.5539320185780525e-02</internalNodes>
          <leafValues>
            6.6411048173904419e-02 -6.3067382574081421e-01</leafValues></_>
        <_>
          <internalNodes>
            0 -1 440 -2.0585035905241966e-02</internalNodes>
          <leafValues>
            -7.8448480367660522e-01 3.7141717970371246e-02</leafValues></_>
        <_>
          <internalNodes>
            0 -1 397 1.2629867997020483e-03</internalNodes>
          <leafValues>
            -2.5633016228675842e-01 1.3760599493980408e-01</leafValues></_>
        <_>
          <internalNodes>
            0 -1 395 -2.4567835032939911e-02</internalNodes>
          <leafValues>
            -5.6681740283966064e-01 5.8760371059179306e-02</leafValues></_>
        <_>
          <internalNodes>
            0 -1 623 1.3678299728780985e-03</internalNodes>
          <leafValues>
            -1.7283780872821808e-01 2.0799782872200012e-01</leafValues></_>
        <_>
          <internalNodes>
            0 -1 594 2.6398422196507454e-03</internalNodes>
          <leafValues>
            -1.0991495847702026e-01 3.2435834407806396e-01</leafValues></_>
        <_>
          <internalNodes>
            0 -1 29 -4.6526841819286346e-02</internalNodes>
          <leafValues>
            2.1033591032028198e-01 -1.7121677100658417e-01</leafValues></_>
        <_>
          <internalNodes>
            0 -1 170 2.5419788435101509e-02</internalNodes>
          <leafValues>
            -1.0700396448373795e-01 4.1109362244606018e-01</leafValues></_>
        <_>
          <internalNodes>
            0 -1 261 1.6593510285019875e-02</internalNodes>
          <leafValues>
            -1.1025033891201019e-01 3.7899416685104370e-01</leafValues></_>
        <_>
          <internalNodes>
            0 -1 180 1.4693482778966427e-02</internalNodes>
          <leafValues>
            6.2466520816087723e-02 -6.1813658475875854e-01</leafValues></_>
        <_>
          <internalNodes>
            0 -1 544 3.1775675714015961e-02</internalNodes>
          <leafValues>
            -1.0497257113456726e-01 3.7346589565277100e-01</leafValues></_>
        <_>
          <internalNodes>
            0 -1 572 1.1888454668223858e-02</internalNodes>
          <leafValues>
            -4.9357987940311432e-02 6.0519063472747803e-01</leafValues></_>
        <_>
          <internalNodes>
            0 -1 161 6.9686295464634895e-03</internalNodes>
          <leafValues>
            -1.0521324723958969e-01 3.0841293931007385e-01</leafValues></_>
        <_>
          <internalNodes>
            0 -1 90 2.0572848618030548e-02</internalNodes>
          <leafValues>
            5.4114192724227905e-02 -6.7258286476135254e-01</leafValues></_>
        <_>
          <internalNodes>
            0 -1 215 4.8223715275526047e-03</internalNodes>
          <leafValues>
            -2.1852852404117584e-01 1.4848574995994568e-01</leafValues></_>
        <_>
          <internalNodes>
            0 -1 607 -4.6804358134977520e-04</internalNodes>
          <leafValues>
            -4.1210871934890747e-01 8.4827624261379242e-02</leafValues></_>
        <_>
          <internalNodes>
            0 -1 466 5.1899500191211700e-02</internalNodes>
          <leafValues>
            4.2866006493568420e-02 -7.2673702239990234e-01</leafValues></_>
        <_>
          <internalNodes>
            0 -1 323 5.6952019222080708e-03</internalNodes>
          <leafValues>
            6.2754780054092407e-02 -4.7566795349121094e-01</leafValues></_>
        <_>
          <internalNodes>
            0 -1 634 1.6624379903078079e-02</internalNodes>
          <leafValues>
            -8.5788294672966003e-02 4.0777212381362915e-01</leafValues></_>
        <_>
          <internalNodes>
            0 -1 203 6.9746933877468109e-03</internalNodes>
          <leafValues>
            -1.0995548963546753e-01 2.9634436964988708e-01</leafValues></_>
        <_>
          <internalNodes>
            0 -1 169 -8.7724104523658752e-03</internalNodes>
          <leafValues>
            3.4434768557548523e-01 -9.6274442970752716e-02</leafValues></_>
        <_>
          <internalNodes>
            0 -1 175 -4.1206732392311096e-02</internalNodes>
          <leafValues>
            -5.8567476272583008e-01 5.8350499719381332e-02</leafValues></_>
        <_>
          <internalNodes>
            0 -1 534 1.2198447249829769e-02</internalNodes>
          <leafValues>
            3.5530608147382736e-02 -7.5470817089080811e-01</leafValues></_></weakClassifiers></_>
    <!-- stage 16 -->
    <_>
      <maxWeakCount>57</maxWeakCount>
      <stageThreshold>-1.4256803989410400e+00</stageThreshold>
      <weakClassifiers>
        <_>
          <internalNodes>
            0 -1 233 8.1257641315460205e-02</internalNodes>
          <leafValues>
            -1.6913767158985138e-01 3.8222554326057434e-01</leafValues></_>
        <_>
          <internalNodes>
            0 -1 162 2.7569435536861420e-02</internalNodes>
          <leafValues>
            -2.4614769220352173e-01 3.3285719156265259e-01</leafValues></_>
        <_>
          <internalNodes>
            0 -1 120 -8.1160012632608414e-03</internalNodes>
          <leafValues>
            2.4909961223602295e-01 -2.4120759963989258e-01</leafValues></_>
        <_>
          <internalNodes>
            0 -1 631 3.8035791367292404e-03</internalNodes>
          <leafValues>
            -2.0994031429290771e-01 2.3022732138633728e-01</leafValues></_>
        <_>
          <internalNodes>
            0 -1 11 -6.5383547544479370e-01</internalNodes>
          <leafValues>
            3.2919582724571228e-01 -1.7035664618015289e-01</leafValues></_>
        <_>
          <internalNodes>
            0 -1 625 1.0318423155695200e-03</internalNodes>
          <leafValues>
            -1.8047057092189789e-01 2.5651216506958008e-01</leafValues></_>
        <_>
          <internalNodes>
            0 -1 596 2.4426165036857128e-03</internalNodes>
          <leafValues>
            -1.6152043640613556e-01 3.4063449501991272e-01</leafValues></_>
        <_>
          <internalNodes>
            0 -1 191 9.7459331154823303e-03</internalNodes>
          <leafValues>
